svm_type c_svc
kernel_type linear
nr_class 6
total_sv 140
rho -0.2055817661072939 -0.1509747333301965 -0.09208393358199508 -0.43536926987614855 -0.294025233449068 0.059982884426272004 -0.04210972482480359 -0.3526198937097175 -0.43187356308755326 -0.12205353829547523 -0.07890523095421538 -0.09619261151126278 -0.14534502430474694 -0.030627763558024445 -0.11036649894253019
label 1 2 3 5 6 4
probA -3.8827632786754966 -3.6697822843381283 -3.569184580109413 -3.78475454499646 -3.773287351662526 -3.640009489482013 -3.6040725339329267 -3.945849380933252 -3.8654609390983 -3.5027386976912362 -3.625086656262134 -3.5953165440148873 -3.6533087935047996 -3.5863173497048977 -3.812180119693848
probB -0.1636727837411055 -0.06591808758595924 -0.10691312556463725 -0.13297644986808327 -0.07372245380867394 0.18076058752423 -0.22249267855264043 -0.274863044650164 -0.33900004927554395 0.05108915340983003 -0.02311808210046822 -0.05564360179943602 -0.0735858689702466 0.1175041477108657 0.08190966573770458
nr_sv 25 28 18 18 28 23
SV
0.22340758674992778 0.22579570976044455 0.25871575232925875 0.12504004767522833 0.11007702203395352 1:0.47276681661605835 2:0.0328703448176384 3:0.06236708164215088 4:0.03740878775715828 5:0.0980004221200943 6:0.10768792033195496 7:0.02771870605647564 8:0.0328703448176384 9:0.30074426531791687 10:0.07840034365653992 11:0.0 12:0.09008578211069107 13:0.0657406821846962 14:0.08330035954713821 15:0.04836557060480118 16:0.06617501378059387 17:0.043827123939991 18:0.0 19:0.7067325711250305 20:0.01095678098499775 21:0.06236708536744118 22:0.0328703448176384 23:0.12250053137540817 24:0.03740878775715828 25:0.09008578211069107 26:0.0328703448176384 27:0.19232605397701263 28:0.10449077188968658 29:0.02862405963242054 30:0.11468274146318436 31:0.043827123939991 32:0.12250053137540817 33:0.0328703448176384 34:0.09701546281576157 35:0.0547839030623436 36:0.0 37:0.024602442979812622 38:0.010963470675051212 39:0.02168155647814274 40:0.013338780961930752 41:0.02271348610520363 42:0.0 43:0.02112499624490738 44:0.010963470675051212 45:0.0027625521179288626 46:0.02820437215268612 47:0.009010051377117634 48:0.016165927052497864 49:0.013029263354837894 50:0.04030187055468559 51:0.01277237944304943 52:0.014825409278273582 53:0.01367393508553505 54:0.0 55:0.01761367730796337 56:0.023853404447436333 57:0.32080021500587463 58:0.1717495173215866 59:0.2693999707698822 60:0.09074506163597107 61:0.0037063523195683956 62:0.009767096489667892 63:0.0027625521179288626 64:0.0329776331782341 65:0.28839120268821716 66:0.7347721457481384 67:0.26308581233024597 68:0.14793427288532257 69:0.16386111080646515 70:0.06881485134363174 71:0.1661509871482849 72:0.07334200292825699 73:0.041005413979291916 74:0.03425469622015953 75:0.013739331625401974 76:0.10667013376951218 77:0.06332289427518845 78:0.019602874293923378 79:0.03099486604332924 80:0.0144825279712677 81:0.02048138715326786 82:0.07516521960496902 83:0.027561886236071587 84:0.05163586884737015 85:0.09967086464166641 86:0.17540864646434784 87:0.0 88:0.013739331625401974 89:0.01086189690977335 90:0.01024069357663393 91:0.43533721566200256 92:0.10797903686761856 93:0.029963292181491852 94:0.061699558049440384 95:0.5227189064025879 96:0.17085719108581543 97:0.41569751501083374 98:0.46550700068473816 99:0.1469271034002304 100:0.0635717362165451 101:0.041553888469934464 102:0.04579777270555496 103:0.010296748019754887 104:0.016191959381103516 105:0.02935890108346939 106:0.02289888821542263 107:0.018957875669002533 108:0.005120346788316965 109:0.09326911717653275 110:0.008176414296030998 111:0.012518567033112049 112:0.001564892940223217 113:0.011897304095327854 114:0.00982807669788599 115:0.008907526731491089 116:0.001564892940223217 117:0.04369621351361275 118:0.433236300945282 119:0.19860966503620148 120:0.2343146651983261 121:0.15640844404697418 122:0.04441354423761368 123:0.047448042780160904 124:0.035723574459552765 125:0.09661693125963211 126:0.06576019525527954 127:0.07324320077896118 128:0.004088207148015499 129:0.012964429333806038 130:0.009145091287791729 131:0.009097938425838947 132:0.007546747103333473 133:0.011974703520536423 134:0.014821485616266727 135:0.06256989389657974 136:0.3780280351638794 137:0.006998414173722267 138:0.036672890186309814 139:0.014522378332912922 140:0.03228560462594032 141:0.05867879465222359 142:0.10161694139242172 143:0.12982013821601868 144:0.6906186938285828 145:0.04670873284339905 146:0.14463500678539276 147:0.23324903845787048 148:0.08106674998998642 149:0.10528577864170074 150:0.10666917264461517 151:0.08575201779603958 152:0.07795332372188568 153:0.039597637951374054 154:0.18063803017139435 155:0.14020952582359314 156:0.04467407986521721 157:0.006771956104785204 158:0.0756128653883934 159:0.0833747535943985 160:0.13560040295124054 161:0.18792413175106049 162:0.18268859386444092 163:0.02389240451157093 164:0.05423867329955101 165:0.04438750073313713 166:0.15235692262649536 167:0.11440257728099823 168:0.19332771003246307 169:0.1484634429216385 170:0.28566354513168335 171:0.05020776391029358 172:0.0073156813159585 173:0.07823897898197174 174:0.4138568043708801 175:0.5604472756385803 176:0.21616509556770325 177:0.027571631595492363 178:0.0 179:0.0 180:0.0041671316139400005 181:0.1633680760860443 182:0.44673511385917664 183:0.15847933292388916 184:0.04360559210181236 185:0.11381343007087708 186:0.11657394468784332 187:0.09041490405797958 188:0.08684560656547546 189:0.10955578833818436 190:0.022649843245744705 191:0.03384993225336075 192:0.011931370943784714 193:0.0044654905796051025 194:0.00452408567070961 195:0.007761460263282061 196:0.01028230506926775 197:0.009951682761311531 198:0.01712699420750141 199:0.07039079070091248 200:0.43179255723953247 201:0.6974135041236877 202:0.10750674456357956 203:9.04817134141922E-4 204:0.0010116163175553083 205:0.001279604621231556 206:0.0 207:0.0 208:0.013719088397920132 209:0.0010116163175553083 210:0.006109798327088356 211:0.011650021187961102 212:0.008143354207277298 213:0.002442257944494486 214:0.011228215880692005 215:0.011995873413980007 216:0.0028612830210477114 217:0.07010935246944427 218:0.006421974394470453 219:0.008409066125750542 220:0.010322903282940388 221:0.0049812886863946915 222:0.0019690273329615593 223:0.002641727216541767 224:0.004176937974989414 225:0.06007583439350128 226:0.19385313987731934 227:0.007814286276698112 228:0.004402879159897566 229:0.0013923125807195902 230:0.008717255666851997 231:0.00535192247480154 232:0.015473838895559311 233:0.24343976378440857 234:0.30604466795921326 235:0.06924917548894882 236:0.009206599555909634 237:0.015453672036528587 238:0.00475365249440074 239:0.01058523915708065 240:0.0059595862403512 241:0.007925180718302727 242:0.009206598624587059 243:0.12170566618442535 244:0.8702563643455505 245:0.006421974394470453 246:0.002641727216541767 247:0.0025672975461930037 248:0.008094594813883305 249:0.00535192247480154 250:0.011050794273614883 251:0.006421974394470453 252:0.1495477706193924 253:0.02965049259364605 254:0.029312092810869217 255:0.139532670378685 256:0.46436792612075806 257:0.261018842458725 258:0.10736802220344543 259:0.09451413154602051 260:0.060054246336221695 261:0.0439794659614563 262:0.012844906188547611 263:0.10966806858778 264:0.49621254205703735 265:0.17515043914318085 266:0.12441784888505936 267:0.0650634616613388 268:0.007806678768247366 269:0.01186524610966444 270:0.0074281878769397736 271:0.12130021303892136 272:0.07969944924116135 273:0.015092967078089714 274:0.0 275:0.07160399109125137 276:0.1441926807165146 277:0.15954402089118958 278:0.19591306149959564 279:0.1680404096841812 280:0.4126654863357544 281:0.048974961042404175 282:0.01919756643474102 283:0.0 284:0.0043176463805139065 285:0.011190753430128098 286:0.023312652483582497 287:0.0970427468419075 288:0.19366271793842316 289:0.0 290:0.13355979323387146 291:0.6965959668159485 292:0.20558331906795502 293:0.16263803839683533 294:0.10223976522684097 295:0.02231854386627674 296:0.013019376434385777 297:0.0 298:0.014505825005471706 299:0.005406002048403025 300:0.01555502787232399 301:0.012327580712735653 302:0.19452673196792603 303:0.37134137749671936 304:0.09711454808712006 305:0.04811973124742508 306:0.015290481969714165 307:0.012480515986680984 308:0.01621800661087036 309:0.165884330868721 310:0.17295300960540771 311:0.12108197063207626 312:0.06601165980100632 313:0.022393139079213142 314:0.0216240081936121 315:0.029422860592603683 316:0.009670550003647804 317:0.005406002048403025 318:0.04332837462425232 319:0.05306783318519592 320:0.17217302322387695 321:0.3219151198863983 322:0.10872862488031387 323:0.01081200409680605 324:0.0 
0.07865849830177497 0.03375893342274486 0.08093432346596441 0.0 0.0 1:0.4576028883457184 2:0.03697775676846504 3:0.1169339194893837 4:0.1001027300953865 5:0.17363803088665009 6:0.05546663701534271 7:0.08827938139438629 8:0.0 9:0.15488407015800476 10:0.09922172874212265 11:0.09660260379314423 12:0.10524052381515503 13:0.10776108503341675 14:0.2645912766456604 15:0.09244439005851746 16:0.12862730026245117 17:0.09244439005851746 18:0.05229444429278374 19:0.5159189105033875 20:0.09992393851280212 21:0.03508017957210541 22:0.13697151839733124 23:0.18190650641918182 24:0.13419455289840698 25:0.1711275726556778 26:0.13378678262233734 27:0.09280981868505478 28:0.1336374282836914 29:0.10376793146133423 30:0.058466967195272446 31:0.07395551353693008 32:0.2811282277107239 33:0.05546663701534271 34:0.15317198634147644 35:0.07395551353693008 36:0.02614722214639187 37:0.355063259601593 38:0.026322467252612114 39:0.2164212316274643 40:0.05264493450522423 41:0.28252238035202026 42:0.026322467252612114 43:0.03329557925462723 44:0.0 45:0.0 46:0.2623383104801178 47:0.11120986938476562 48:0.13318230211734772 49:0.05264493450522423 50:0.25897884368896484 51:0.07896740734577179 52:0.13318230211734772 53:0.026322467252612114 54:0.03722558915615082 55:0.24720707535743713 56:0.10528986901044846 57:0.26636460423469543 58:0.026322467252612114 59:0.211891770362854 60:0.15382610261440277 61:0.04994336888194084 62:0.24874219298362732 63:0.03722558915615082 64:0.2236635386943817 65:0.05264493450522423 66:0.06659115850925446 67:0.026322467252612114 68:0.3413811922073364 69:0.11619298905134201 70:0.2497168332338333 71:0.13161233067512512 72:0.03722558915615082 73:0.13658307492733002 74:0.04698600620031357 75:0.25259071588516235 76:0.04698600620031357 77:0.231140598654747 78:0.03322412446141243 79:0.14858278632164001 80:0.0 81:0.0 82:0.231140598654747 83:0.0 84:0.16470468044281006 85:0.1409580260515213 86:0.37996914982795715 87:0.07047901302576065 88:0.2094871550798416 89:0.1553463488817215 90:0.03322412446141243 91:0.24164699018001556 92:0.09951795637607574 93:0.08914967626333237 94:0.0802101343870163 95:0.2521533668041229 96:0.1235290914773941 97:0.17829935252666473 98:0.09397201240062714 99:0.03322412446141243 100:0.22063420712947845 101:0.023493003100156784 102:0.3216598927974701 103:0.05671713128685951 104:0.2101278156042099 105:0.2710734009742737 106:0.1864641308784485 107:0.07047901302576065 108:0.03322412446141243 109:0.5260687470436096 110:0.02609102427959442 111:0.016501409932971 112:0.029693441465497017 113:0.06612014025449753 114:0.04212751239538193 115:0.07150610536336899 116:0.017394015565514565 117:0.024598851799964905 118:0.11468667536973953 119:0.04011452570557594 120:0.04702632129192352 121:0.059386882930994034 122:0.03111536055803299 123:0.05442693829536438 124:0.06050517410039902 125:0.04881153255701065 126:0.024598851799964905 127:0.698849618434906 128:0.02609102427959442 129:0.027502352371811867 130:0.008697007782757282 131:0.07389897853136063 132:0.052182044833898544 133:0.09091006964445114 134:0.05942303314805031 135:0.24299199879169464 136:0.2590806186199188 137:0.017394015565514565 138:0.08552961051464081 139:0.04592325538396835 140:0.03111536055803299 141:0.05442693829536438 142:0.06902819871902466 143:0.04881153255701065 144:0.14599396288394928 145:0.06516178697347641 146:0.1301058530807495 147:0.05268795043230057 148:0.10639803111553192 149:0.12279203534126282 150:0.037487369030714035 151:0.012170768342912197 152:8.669088128954172E-4 153:0.01938956044614315 154:0.053454846143722534 155:0.05361282080411911 156:0.24239814281463623 157:0.06994645297527313 158:0.25940048694610596 159:0.06134605035185814 160:0.06586954742670059 161:0.012314988300204277 162:0.028616728261113167 163:0.17697328329086304 164:0.06322233378887177 165:0.040231894701719284 166:0.042172934859991074 167:0.059645552188158035 168:0.07959115505218506 169:0.1517551988363266 170:0.07520677149295807 171:0.11401433497667313 172:0.003101547248661518 173:0.08275391906499863 174:0.7931545972824097 175:0.27084603905677795 176:0.04612922668457031 177:0.0028224505949765444 178:0.003837968921288848 179:0.01497520599514246 180:0.0019768562633544207 181:0.2996145784854889 182:0.07716948539018631 183:0.2704220712184906 184:0.1086784228682518 185:0.21171431243419647 186:0.09932798147201538 187:0.06666412204504013 188:0.19740399718284607 189:0.2492757886648178 190:0.010005900636315346 191:0.009198061190545559 192:0.029345257207751274 193:0.02930586412549019 194:0.03215337544679642 195:0.0018396122613921762 196:0.013437542133033276 197:0.0036792245227843523 198:0.0 199:0.08702076226472855 200:0.6519799828529358 201:0.46188798546791077 202:0.03571284934878349 203:0.0024680988863110542 204:0.04232294112443924 205:0.0011634728871285915 206:0.008485122583806515 207:0.04661096632480621 208:0.025637192651629448 209:0.03382457047700882 210:0.023384662345051765 211:0.04512590542435646 212:0.015631292015314102 213:0.002601604675874114 214:0.0034904186613857746 215:0.0018396122613921762 216:0.0 217:0.22017094492912292 218:0.003387708216905594 219:0.02474568597972393 220:0.01979745738208294 221:0.021210407838225365 222:0.017760537564754486 223:0.03213861957192421 224:0.02710166573524475 225:0.20826329290866852 226:0.1363295614719391 227:0.017700448632240295 228:0.040708914399147034 229:0.010163125582039356 230:0.030300583690404892 231:0.0 232:0.019495327025651932 233:0.016332121565937996 234:0.021264446899294853 235:0.212561696767807 236:0.01693854108452797 237:0.019283171743154526 238:0.013550832867622375 239:0.028785554692149162 240:0.009634333662688732 241:0.010712874121963978 242:0.006775416433811188 243:0.17152954638004303 244:0.7179034352302551 245:0.5305376052856445 246:0.029000891372561455 247:0.009634333662688732 248:0.03181561082601547 249:0.010163125582039356 250:0.007605090271681547 251:0.005462515167891979 252:0.08002609759569168 253:0.24094901978969574 254:0.13114403188228607 255:0.021571440622210503 256:0.006314529106020927 257:0.029198460280895233 258:0.045726511627435684 259:0.0067736320197582245 260:0.052373647689819336 261:0.16285113990306854 262:0.3149014413356781 263:0.3308852016925812 264:0.32662492990493774 265:0.004277567844837904 266:0.01171237975358963 267:0.0 268:0.017959924414753914 269:0.016087301075458527 270:0.019302252680063248 271:0.29174748063087463 272:0.11813537031412125 273:0.011113052256405354 274:0.0 275:4.333697143010795E-4 276:0.0 277:0.012572044506669044 278:0.0 279:0.09263015538454056 280:0.678231954574585 281:0.03509598597884178 282:0.020312750712037086 283:0.004845220595598221 284:0.004333697259426117 285:0.0 286:0.0 287:0.0027749203145503998 288:0.07692887634038925 289:0.24153684079647064 290:0.39919012784957886 291:0.3236066997051239 292:0.13509149849414825 293:0.0437229722738266 294:0.019752025604248047 295:0.026500120759010315 296:0.08950365334749222 297:0.09710672497749329 298:0.33765125274658203 299:0.2351638227701187 300:0.14133396744728088 301:0.12930627167224884 302:0.06870752573013306 303:0.013966791331768036 304:0.07066699117422104 305:0.11503144353628159 306:0.09110526740550995 307:0.16645404696464539 308:0.34823641180992126 309:0.2520650625228882 310:0.17120665311813354 311:0.06246138736605644 312:0.055867165327072144 313:0.11073105037212372 314:0.013966791331768036 315:0.025753488764166832 316:0.19447942078113556 317:0.064421147108078 318:0.2008141279220581 319:0.13237513601779938 320:0.14366118609905243 321:0.04190037399530411 322:0.11968787014484406 323:0.05045435577630997 324:0.019752025604248047 
0.3378246871046966 0.0 0.03252605505204876 0.26794182605940986 0.27778208146589956 1:0.4530313313007355 2:0.06547366827726364 3:0.02786046452820301 4:0.08813201636075974 5:0.004850441589951515 6:0.0 7:0.03429780155420303 8:0.05138803645968437 9:0.46238112449645996 10:0.09344761818647385 11:0.02711479179561138 12:0.04985368251800537 13:0.09711362421512604 14:0.17285124957561493 15:0.01851513795554638 16:0.03275271877646446 17:0.052240561693906784 18:0.02003546990454197 19:0.42724868655204773 20:0.05672940984368324 21:0.044926755130290985 22:0.02711479179561138 23:0.021826986223459244 24:0.0 25:0.012174038216471672 26:0.02711479179561138 27:0.5399556756019592 28:0.09393618255853653 29:0.05434222146868706 30:0.09629862010478973 31:0.03084479831159115 32:0.031527869403362274 33:0.053973011672496796 34:0.03086801990866661 35:0.01416721660643816 36:0.0 37:0.09820027649402618 38:0.04350981488823891 39:0.06153063103556633 40:0.05490821227431297 41:0.5295019149780273 42:0.018715884536504745 43:0.09424666315317154 44:0.09181714802980423 45:0.050568658858537674 46:0.10513421148061752 47:0.04050539433956146 48:0.04412727802991867 49:0.0 50:0.7478006482124329 51:0.04197299852967262 52:0.07905208319425583 53:0.07626283913850784 54:0.050568658858537674 55:0.10139157623052597 56:0.07634939253330231 57:0.07403095811605453 58:0.007752372417598963 59:0.04189053177833557 60:0.02646825462579727 61:0.10847026109695435 62:0.04350981488823891 63:0.061532165855169296 64:0.18175075948238373 65:0.05126218870282173 66:0.06905939429998398 67:0.02646825462579727 68:0.0346696637570858 69:0.034220628440380096 70:0.051724568009376526 71:0.05126218870282173 72:0.02192702144384384 73:0.08252368867397308 74:0.03704807907342911 75:0.040697935968637466 76:0.011749431490898132 77:0.5983597040176392 78:0.023498861119151115 79:0.03247157484292984 80:0.05085683986544609 81:0.02064797282218933 82:0.07026872783899307 83:0.032181303948163986 84:0.023237526416778564 85:0.018632087856531143 86:0.7432641386985779 87:0.01658751629292965 88:0.043354012072086334 89:0.06920616328716278 90:0.058717455714941025 91:0.13856904208660126 92:0.07226438820362091 93:0.021546125411987305 94:0.05276095122098923 95:0.01741189882159233 96:0.020723318681120872 97:0.02770215831696987 98:0.05760972201824188 99:0.0068826572969555855 100:0.11841938644647598 101:0.02433386631309986 102:0.038584597408771515 103:0.025590090081095695 104:0.006529461592435837 105:0.03668804094195366 106:0.05089665949344635 107:0.055723607540130615 108:0.03597825765609741 109:0.6371919512748718 110:0.06012945994734764 111:0.046675052493810654 112:0.035284120589494705 113:0.023669308051466942 114:0.023522747680544853 115:0.014877092093229294 116:0.015363010577857494 117:0.322457492351532 118:0.13395380973815918 119:0.04836807772517204 120:0.05783286690711975 121:0.037719979882240295 122:0.023669308051466942 123:0.025958606973290443 124:0.02975418046116829 125:0.041286952793598175 126:0.008316547609865665 127:0.49373525381088257 128:0.05930430442094803 129:0.05783286690711975 130:0.06955927610397339 131:0.026299230754375458 132:0.020077921450138092 133:0.0037192730233073235 134:0.02124369703233242 135:0.4089501202106476 136:0.09896562993526459 137:0.04984479397535324 138:0.10482422262430191 139:0.039368636906147 140:0.047338616102933884 141:0.014197234995663166 142:0.007438546046614647 143:0.029403435066342354 144:0.0 145:0.025163481011986732 146:0.061155132949352264 147:0.1284719705581665 148:0.015472428873181343 149:0.067826047539711 150:0.015868494287133217 151:0.005445889662951231 152:0.009629346430301666 153:0.0420994833111763 154:0.047136422246694565 155:0.1342623382806778 156:0.12294917553663254 157:0.05922138690948486 158:0.14934122562408447 159:0.07921069115400314 160:0.10078538954257965 161:0.08017521351575851 162:0.059864386916160583 163:0.24136553704738617 164:0.13977214694023132 165:0.07602743804454803 166:0.11893085390329361 167:0.0552012175321579 168:0.01859450712800026 169:0.05803646519780159 170:0.125242218375206 171:0.20593954622745514 172:0.026497630402445793 173:0.21031416952610016 174:0.8025335073471069 175:0.14595380425453186 176:0.07511545717716217 177:0.07733476161956787 178:0.003886787686496973 179:0.0 180:0.002415650524199009 181:0.29761311411857605 182:0.49133044481277466 183:0.06709988415241241 184:0.00965123064815998 185:0.05300254374742508 186:0.12333957850933075 187:0.08930132538080215 188:0.3203125298023224 189:0.16700798273086548 190:0.05901137739419937 191:0.03150363266468048 192:0.027958335354924202 193:0.027933653444051743 194:0.009019184857606888 195:0.014693108387291431 196:0.02551010623574257 197:0.008129782974720001 198:0.026824062690138817 199:0.4343068599700928 200:0.5370755791664124 201:0.12242086976766586 202:0.015125633217394352 203:0.010146583430469036 204:0.0025209388695657253 205:0.006377526558935642 206:0.016652191057801247 207:0.027666164562106133 208:0.06175009161233902 209:0.01265705469995737 210:0.017538199201226234 211:0.014732136391103268 212:0.007891787216067314 213:0.0 214:0.006377526558935642 215:0.04496688395738602 216:0.03259852156043053 217:0.38398051261901855 218:0.044115327298641205 219:0.10252834111452103 220:0.04431816563010216 221:0.016384141519665718 222:0.01736493408679962 223:0.04247957095503807 224:0.009845644235610962 225:0.49240124225616455 226:0.060854483395814896 227:0.052587706595659256 228:0.0754958838224411 229:0.06158856675028801 230:0.04096035659313202 231:0.0086352014914155 232:0.03861778974533081 233:0.022057663649320602 234:0.0 235:0.1959220916032791 236:0.08094638586044312 237:0.03301632031798363 238:0.06250566244125366 239:0.057344499975442886 240:0.006106009241193533 241:0.023170676082372665 242:0.012212018482387066 243:0.6861101388931274 244:0.13299690186977386 245:0.028163671493530273 246:0.08360183238983154 247:0.03916524723172188 248:0.07099795341491699 249:0.024424036964774132 250:0.015447117388248444 251:0.034269679337739944 252:0.12151582539081573 253:0.18462805449962616 254:0.10173305869102478 255:0.043616317212581635 256:0.11864656955003738 257:0.0698937177658081 258:0.0958457961678505 259:0.0 260:0.04304036870598793 261:0.22232083976268768 262:0.25469428300857544 263:0.208158478140831 264:0.24421751499176025 265:0.0010914234444499016 266:0.0 267:0.0018631764687597752 268:9.761987603269517E-4 269:0.0027842381969094276 270:0.03883766010403633 271:0.7732479572296143 272:0.1602395623922348 273:0.021763024851679802 274:0.0 275:0.0 276:0.0 277:0.010032820515334606 278:0.004630517214536667 279:0.07792415469884872 280:0.2356225699186325 281:0.11747662723064423 282:0.02079569175839424 283:0.008100831881165504 284:0.0069313328713178635 285:0.005364865530282259 286:0.0049293250776827335 287:0.005896015092730522 288:0.06826363503932953 289:0.2002716213464737 290:0.1306985318660736 291:0.10533317178487778 292:0.14534881711006165 293:0.08912481367588043 294:0.0510699525475502 295:0.10166525095701218 296:0.08270370960235596 297:0.04328722879290581 298:0.27790430188179016 299:0.2331608384847641 300:0.23335859179496765 301:0.032075103372335434 302:0.05941654369235039 303:0.026571886613965034 304:0.058819372206926346 305:0.07763971388339996 306:0.08657445758581161 307:0.16367284953594208 308:0.0 309:0.11066518723964691 310:0.4134601950645447 311:0.35270944237709045 312:0.33596107363700867 313:0.11477037519216537 314:0.11226363480091095 315:0.08086554706096649 316:0.25592300295829773 317:0.20088881254196167 318:0.16805534064769745 319:0.16592778265476227 320:0.14296960830688477 321:0.06435589492321014 322:0.0764569491147995 323:0.026571886613965034 324:0.01878916099667549 
0.01583237916053161 0.04266699589941805 0.09292760288512891 0.0 0.19267897675462756 1:0.07255839556455612 2:0.12813621759414673 3:0.24134404957294464 4:0.2665887773036957 5:0.2296583503484726 6:0.19091184437274933 7:0.15790218114852905 8:0.20275303721427917 9:0.025042878463864326 10:0.1346273124217987 11:0.053123969584703445 12:0.0559975765645504 13:0.15159280598163605 14:0.11878880113363266 15:0.2487764209508896 16:0.1752559244632721 17:0.04264648258686066 18:0.07512863725423813 19:0.13591241836547852 20:0.12785401940345764 21:0.19654598832130432 22:0.15612491965293884 23:0.23757760226726532 24:0.22435101866722107 25:0.2025437206029892 26:0.08167723566293716 27:0.10778054594993591 28:0.19103698432445526 29:0.07083195447921753 30:0.1517479419708252 31:0.1032097265124321 32:0.12670806050300598 33:0.17574407160282135 34:0.16294744610786438 35:0.23410196602344513 36:0.25396472215652466 37:0.010281289927661419 38:0.003536871401593089 39:0.00894765555858612 40:0.03469667211174965 41:0.013444764539599419 42:0.010334576480090618 43:0.015292230062186718 44:0.011693695560097694 45:0.0 46:0.016024021431803703 47:0.016045762225985527 48:0.02589034102857113 49:0.04013168066740036 50:0.07522683590650558 51:0.052587661892175674 52:0.018469244241714478 53:0.013462130911648273 54:0.008262725546956062 55:0.19063709676265717 56:0.08181869983673096 57:0.38343775272369385 58:0.4868384301662445 59:0.21100129187107086 60:0.05957518890500069 61:0.05381562188267708 62:0.014264346100389957 63:0.26754453778266907 64:0.05007263645529747 65:0.10773040354251862 66:0.09482260793447495 67:0.2199966460466385 68:0.4194951057434082 69:0.17858120799064636 70:0.384744256734848 71:0.09299156069755554 72:0.016130615025758743 73:0.026008162647485733 74:0.00528691103681922 75:0.003343735821545124 76:0.02329433523118496 77:0.03664786368608475 78:0.035369496792554855 79:0.034498244524002075 80:0.00264345551840961 81:0.0 82:0.018116524443030357 83:0.007930366322398186 84:0.025996726006269455 85:0.026663344353437424 86:0.034283485263586044 87:0.0330861359834671 88:0.02189982868731022 89:0.009549354203045368 90:0.014953642152249813 91:0.13057053089141846 92:0.05683460459113121 93:0.001671867910772562 94:0.04213554412126541 95:0.04408388212323189 96:0.017618373036384583 97:0.17294929921627045 98:0.940909743309021 99:0.21502427756786346 100:0.0285180751234293 101:0.016455253586173058 102:0.019309252500534058 103:0.017266327515244484 104:0.024923814460635185 105:0.03728034719824791 106:0.006687471643090248 107:0.021742165088653564 108:0.0074768210761249065 109:0.2746320366859436 110:0.130111426115036 111:0.007065255660563707 112:0.0 113:0.13988493382930756 114:0.2832382619380951 115:0.1739940047264099 116:0.1386151909828186 117:0.1030682921409607 118:0.35244351625442505 119:0.06953932344913483 120:0.0 121:0.022342301905155182 122:0.0049958904273808 123:0.044684603810310364 124:0.06746973097324371 125:0.15470390021800995 126:0.11538893729448318 127:0.39407914876937866 128:0.20162203907966614 129:0.07841741293668747 130:0.10638277232646942 131:0.029975343495607376 132:0.1899142563343048 133:0.12157997488975525 134:0.12983721494674683 135:0.1680857390165329 136:0.044963013380765915 137:0.011171150952577591 138:0.0 139:0.01579839363694191 140:0.4246506989002228 141:0.23496663570404053 142:0.1483703851699829 143:0.029184091836214066 144:0.056995563209056854 145:0.46859684586524963 146:0.007359028793871403 147:0.06946852058172226 148:0.06604286283254623 149:0.0772845596075058 150:0.038077495992183685 151:0.03738253191113472 152:0.01870162971317768 153:0.2628304958343506 154:0.07567568123340607 155:0.2708524465560913 156:0.15663699805736542 157:0.11520678550004959 158:0.028131477534770966 159:0.012535943649709225 160:0.003772345371544361 161:0.014322299510240555 162:0.012269663624465466 163:0.1618330329656601 164:0.024106040596961975 165:0.036007024347782135 166:0.0068440791219472885 167:0.0160494577139616 168:0.010157275013625622 169:0.009536320343613625 170:0.013663381338119507 171:0.5081636309623718 172:0.4796263873577118 173:0.23304183781147003 174:0.01820811629295349 175:0.031356826424598694 176:0.00892309844493866 177:0.020059071481227875 178:0.018380800262093544 179:0.002846670104190707 180:0.03515103459358215 181:0.2126617431640625 182:0.964153528213501 183:0.022565599530935287 184:0.007526175584644079 185:0.021839743480086327 186:0.09119413793087006 187:0.03558977693319321 188:0.05974186956882477 189:0.04219214618206024 190:0.012815690599381924 191:0.01154220849275589 192:0.026489105075597763 193:0.019153008237481117 194:0.022673914209008217 195:0.030138829723000526 196:0.027362842112779617 197:0.015926329419016838 198:0.011246743611991405 199:0.03104042261838913 200:0.010167530737817287 201:0.030108913779258728 202:0.01634364016354084 203:0.01873062551021576 204:0.0044087315909564495 205:0.021050497889518738 206:0.01154220849275589 207:0.005026727449148893 208:0.013801513239741325 209:0.0022043657954782248 210:0.01812412217259407 211:0.014708269387483597 212:0.020702268928289413 213:0.026299096643924713 214:0.014079681597650051 215:0.0044087315909564495 216:0.0 217:0.10736926645040512 218:0.03079797327518463 219:0.01731986738741398 220:0.011458586901426315 221:0.005812233779579401 222:0.0036759793292731047 223:0.013151583261787891 224:0.06607116013765335 225:0.05165749043226242 226:0.14031803607940674 227:0.02037171460688114 228:0.03409766033291817 229:0.01405789703130722 230:0.0384187176823616 231:0.026608476415276527 232:0.030813638120889664 233:0.047509171068668365 234:0.23601198196411133 235:0.018976425752043724 236:0.05010848119854927 237:0.005812233779579401 238:0.005198619794100523 239:0.01992681995034218 240:0.05535947158932686 241:0.10376632958650589 242:0.047758061438798904 243:0.02994423918426037 244:0.24534951150417328 245:0.7334282994270325 246:0.48104459047317505 247:0.1336672306060791 248:0.02680065669119358 249:0.024283569306135178 250:0.02307840622961521 251:0.01405155099928379 252:0.1658926159143448 253:0.2739867866039276 254:0.09698519855737686 255:0.06962304562330246 256:0.2370821088552475 257:0.29159310460090637 258:0.04104560986161232 259:0.022203445434570312 260:0.02375730685889721 261:0.23733903467655182 262:0.4391212463378906 263:0.01536267064511776 264:0.014025725424289703 265:0.0333259217441082 266:0.1526288241147995 267:0.05104435980319977 268:0.1554468274116516 269:0.0846455991268158 270:0.26822468638420105 271:0.37528055906295776 272:0.0889979749917984 273:0.07258012890815735 274:0.019148938357830048 275:0.012510061264038086 276:0.020371949300169945 277:0.009244202636182308 278:0.014089521951973438 279:0.11453152447938919 280:0.3149957060813904 281:0.002670418471097946 282:0.00846606120467186 283:0.01383238099515438 284:0.008966958150267601 285:0.1393398493528366 286:0.15214155614376068 287:0.09921648353338242 288:0.25784337520599365 289:0.0435386560857296 290:0.021455887705087662 291:0.04072074592113495 292:0.03585347905755043 293:0.03958059847354889 294:0.044635456055402756 295:0.04785623401403427 296:0.017700981348752975 297:0.006258241832256317 298:0.04781786724925041 299:0.024836475029587746 300:0.046318281441926956 301:0.030285974964499474 302:0.015832239761948586 303:0.013275736942887306 304:0.03078647516667843 305:0.031971968710422516 306:0.006258241832256317 307:0.06433332711458206 308:0.029332520440220833 309:0.04094976186752319 310:0.073710598051548 311:0.08191859722137451 312:0.12724566459655762 313:0.38528677821159363 314:0.8301659822463989 315:0.19268204271793365 316:0.020033929497003555 317:0.004425245337188244 318:0.016792625188827515 319:0.10078593343496323 320:0.22086691856384277 321:0.09752412885427475 322:0.030786478891968727 323:0.011560739949345589 324:0.010091111995279789 
0.0 0.23713857193384333 0.0 0.0 0.0 1:0.4573534429073334 2:0.06044996157288551 3:0.03693997114896774 4:0.043779369443655014 5:0.048883285373449326 6:0.0068316468968987465 7:0.02160356380045414 8:0.027326587587594986 9:0.4577387571334839 10:0.10562078654766083 11:0.09879224002361298 12:0.07193350791931152 13:0.10781372338533401 14:0.14734578132629395 15:0.05637630820274353 16:0.032619260251522064 17:0.03151063993573189 18:0.009661407209932804 19:0.2916281819343567 20:0.10611939430236816 21:0.034565702080726624 22:0.04841279983520508 23:0.0519384890794754 24:0.013663293793797493 25:0.04320712387561798 26:0.013663293793797493 27:0.6007489562034607 28:0.14900913834571838 29:0.056265901774168015 30:0.03693997487425804 31:0.03981775417923927 32:0.04582807794213295 33:0.013663293793797493 34:0.08014709502458572 35:0.05618962645530701 36:0.009661407209932804 37:0.07784471660852432 38:0.05278439074754715 39:0.06940261274576187 40:0.09867514669895172 41:0.3028196394443512 42:0.006417630705982447 43:0.04727981612086296 44:0.037533633410930634 45:0.023667050525546074 46:0.10906196385622025 47:0.012835261411964893 48:0.0468779094517231 49:0.02191116102039814 50:0.512335479259491 51:0.04382232204079628 52:0.03247092664241791 53:0.01676574908196926 54:0.009075900539755821 55:0.05786677449941635 56:0.0912901759147644 57:0.054995641112327576 58:0.012835261411964893 59:0.09209074825048447 60:0.0283287912607193 61:0.03247092291712761 62:0.04243626818060875 63:0.009075900539755821 64:0.09599651396274567 65:0.02960100956261158 66:0.0365297868847847 67:0.04654211923480034 68:0.745423436164856 69:0.0283287912607193 70:0.0468779094517231 71:0.02318337932229042 72:0.014634449034929276 73:0.08250477910041809 74:0.033927641808986664 75:0.04761048033833504 76:0.006273232400417328 77:0.6151905059814453 78:0.051805127412080765 79:0.05191543698310852 80:0.04289231449365616 81:0.0 82:0.09194162487983704 83:0.041481442749500275 84:0.05191543698310852 85:0.0 86:0.7313806414604187 87:0.018819697201251984 88:0.03570786118507385 89:0.018819697201251984 90:0.01774338074028492 91:0.09629667550325394 92:0.012546464800834656 93:0.04364294186234474 94:0.03916153684258461 95:0.05330402031540871 96:0.03136616200208664 97:0.039675403386354446 98:0.0477546788752079 99:0.029310647398233414 100:0.15309691429138184 101:0.03905026242136955 102:0.019837701693177223 103:0.012546464800834656 104:0.028054747730493546 105:0.02509292960166931 106:0.06348064541816711 107:0.03905026242136955 108:0.00887169037014246 109:0.4065535366535187 110:0.10859788954257965 111:0.11836638301610947 112:0.050644900649785995 113:0.055675942450761795 114:0.01659935899078846 115:0.06062542647123337 116:0.038281869143247604 117:0.5471099019050598 118:0.12294401973485947 119:0.08994658291339874 120:0.07629960030317307 121:0.02833687886595726 122:0.07423458993434906 123:0.00829967949539423 124:0.02624589018523693 125:0.07825841754674911 126:0.0117375198751688 127:0.35064148902893066 128:0.09312350302934647 129:0.11356361955404282 130:0.06256691366434097 131:0.03711729496717453 132:0.02360353246331215 133:0.04724259674549103 134:0.02998219057917595 135:0.48993629217147827 136:0.1546572744846344 137:0.08994657546281815 138:0.06823930889368057 139:0.09545263648033142 140:0.08908151090145111 141:0.0 142:0.03955535963177681 143:0.08347039669752121 144:0.01892618089914322 145:0.1047009527683258 146:0.09680921584367752 147:0.30858272314071655 148:0.11524662375450134 149:0.12412278354167938 150:0.05564167723059654 151:0.07001561671495438 152:0.04716389626264572 153:0.03528760373592377 154:0.04373497888445854 155:0.14183375239372253 156:0.18820613622665405 157:0.12443032115697861 158:0.2173573076725006 159:0.2123459279537201 160:0.12286009639501572 161:0.06860330700874329 162:0.02081075683236122 163:0.1649007648229599 164:0.007902692072093487 165:0.04733336344361305 166:0.12185721099376678 167:0.08619153499603271 168:0.10593077540397644 169:0.08838064223527908 170:0.150032177567482 171:0.26393088698387146 172:0.006262339185923338 173:0.026295773684978485 174:0.5787063837051392 175:0.35956427454948425 176:0.17525312304496765 177:0.011890815570950508 178:0.0 179:0.005923220422118902 180:0.0 181:0.4028613567352295 182:0.46070313453674316 183:0.4492087960243225 184:0.0736590251326561 185:0.08034602552652359 186:0.19579167664051056 187:0.08194246888160706 188:0.18066270649433136 189:0.024118073284626007 190:0.03055754490196705 191:0.020658565685153008 192:0.009001112543046474 193:0.009631892666220665 194:0.005569154862314463 195:0.008895006030797958 196:0.012994804419577122 197:0.01067400723695755 198:0.0 199:0.04874725267291069 200:0.08358192443847656 201:0.5612061023712158 202:0.05543152987957001 203:0.008751529268920422 204:0.0500839538872242 205:0.007875973358750343 206:0.0035580024123191833 207:0.003280316013842821 208:0.01763216406106949 209:0.011763558723032475 210:0.010126251727342606 211:0.0035580024123191833 212:0.014320683665573597 213:0.006810776423662901 214:0.022502779960632324 215:0.01354256086051464 216:0.005031775217503309 217:0.06027277186512947 218:0.0020703887566924095 219:0.010260182432830334 220:0.012419285252690315 221:0.0011484449496492743 222:0.006951853167265654 223:0.012993170879781246 224:0.008988003246486187 225:0.05051245167851448 226:0.19980710744857788 227:0.20993934571743011 228:0.06949856877326965 229:0.02903835102915764 230:0.008039114996790886 231:0.006420002784579992 232:0.006496585439890623 233:0.008228285238146782 234:0.05326182767748833 235:0.1617284119129181 236:0.0046383896842598915 237:0.006496585439890623 238:0.007704003248363733 239:0.0074648926965892315 240:0.008767704479396343 241:0.008932804688811302 242:0.0 243:0.030741732567548752 244:0.6063789129257202 245:0.6797314286231995 246:0.005764923989772797 247:0.005667852703481913 248:0.004019557498395443 249:0.004383852239698172 250:0.0024362197145819664 251:0.0 252:0.20798061788082123 253:0.21887589991092682 254:0.16684533655643463 255:0.16025307774543762 256:0.1932486742734909 257:0.2294844537973404 258:0.08378507196903229 259:0.19163000583648682 260:0.08012126386165619 261:0.16623087227344513 262:0.2142224758863449 263:0.2094583511352539 264:0.023243805393576622 265:0.08802415430545807 266:0.14862172305583954 267:0.054898738861083984 268:0.0419321246445179 269:0.056191205978393555 270:0.0790523812174797 271:0.5526732802391052 272:0.36128008365631104 273:0.0788663700222969 274:0.1365879476070404 275:0.031371522694826126 276:0.005011219531297684 277:0.013852409087121487 278:0.002622992265969515 279:0.09991273283958435 280:0.3490166664123535 281:0.009001538157463074 282:0.012043140828609467 283:0.00447772815823555 284:0.025945967063307762 285:0.020699987187981606 286:0.0 287:0.014228234998881817 288:0.03243397921323776 289:0.039168134331703186 290:0.0 291:0.009497219696640968 292:0.0060065691359341145 293:0.016117315739393234 294:0.01325713936239481 295:0.02089388109743595 296:0.012013138271868229 297:0.0 298:0.05459621176123619 299:0.010849219746887684 300:0.02295486070215702 301:0.009009853936731815 302:0.03357774019241333 303:0.014501139521598816 304:0.017094993963837624 305:0.010849219746887684 306:0.004247285891324282 307:0.016117315739393234 308:0.015016422607004642 309:0.02953541837632656 310:0.01325713936239481 311:0.026862192898988724 312:0.015745140612125397 313:0.030579183250665665 314:0.012013138271868229 315:0.0 316:0.009401767514646053 317:0.039687734097242355 318:0.9491711258888245 319:0.27351248264312744 320:0.016117315739393234 321:0.09923288971185684 322:0.024880852550268173 323:0.012013138271868229 324:0.0 
0.0 0.13107682374599683 0.0033733671565268466 0.0 0.00776997090219345 1:0.4998215138912201 2:0.05738571286201477 3:0.060489848256111145 4:0.04618045315146446 5:0.1882002353668213 6:0.05738571286201477 7:0.07258781790733337 8:0.019128570333123207 9:0.05410376563668251 10:0.059881895780563354 11:0.038257140666246414 12:0.07258781790733337 13:0.038257140666246414 14:0.24808213114738464 15:0.09564284980297089 16:0.084685780107975 17:0.05738571286201477 18:0.0 19:0.6876757144927979 20:0.038257140666246414 21:0.048391878604888916 22:0.08443758636713028 23:0.11976379156112671 24:0.038257140666246414 25:0.048391878604888916 26:0.07651428133249283 27:0.07746480405330658 28:0.17964568734169006 29:0.038257140666246414 30:0.084685780107975 31:0.05439991131424904 32:0.12831833958625793 33:0.05738571286201477 34:0.15182356536388397 35:0.019128570333123207 36:0.0 37:0.06315900385379791 38:0.014046801254153252 39:0.008883976377546787 40:0.025350792333483696 41:0.02722165361046791 42:0.014046801254153252 43:0.03849722445011139 44:0.009364534169435501 45:0.006621725391596556 46:0.02093973383307457 47:0.014046801254153252 48:0.049008481204509735 49:0.04067867994308472 50:0.04187946766614914 51:0.025350792333483696 52:0.03420185297727585 53:0.01691446267068386 54:0.013243450783193111 55:0.016751786693930626 56:0.021596727892756462 57:0.24267028272151947 58:0.07967392355203629 59:0.34229806065559387 60:0.0046822670847177505 61:0.008883976377546787 62:0.009364534169435501 63:0.0 64:0.01709159091114998 65:0.009364534169435501 66:0.1637474000453949 67:0.3235054612159729 68:0.6904163956642151 69:0.3939909338951111 70:0.19101282954216003 71:0.014046801254153252 72:0.006621725391596556 73:0.1956823468208313 74:0.09517093747854233 75:0.08788963407278061 76:0.06948286294937134 77:0.14293892681598663 78:0.07523901015520096 79:0.132581889629364 80:0.0502006933093071 81:0.019652720540761948 82:0.16880638897418976 83:0.07799383252859116 84:0.11533848941326141 85:0.11082398891448975 86:0.1931711733341217 87:0.07523901015520096 88:0.10654953122138977 89:0.04168972000479698 90:0.019652720540761948 91:0.04350315034389496 92:0.06409726291894913 93:0.15424199402332306 94:0.12051573395729065 95:0.19938591122627258 96:0.41653677821159363 97:0.5753057599067688 98:0.013896572403609753 99:0.0 100:0.044511664658784866 101:0.08650480955839157 102:0.1902681291103363 103:0.3261495530605316 104:0.16158314049243927 105:0.05558628961443901 106:0.06635236740112305 107:0.0502006933093071 108:0.0 109:0.15104708075523376 110:0.013380146585404873 111:0.023657456040382385 112:0.0037038966547697783 113:0.014907896518707275 114:0.011111690662801266 115:0.023425497114658356 116:0.0230563972145319 117:0.12123986333608627 118:0.384217232465744 119:0.25872698426246643 120:0.19829046726226807 121:0.012067748233675957 122:0.02981579303741455 123:0.023757582530379295 124:0.049334973096847534 125:0.06455164402723312 126:0.07681628316640854 127:0.11182054132223129 128:0.022223379462957382 129:0.01639784872531891 130:0.028995683416724205 131:0.016564328223466873 132:0.019418198615312576 133:0.009370199404656887 134:0.0037038966547697783 135:0.15382204949855804 136:0.49208128452301025 137:0.042233239859342575 138:0.0023425498511642218 139:0.039416827261447906 140:0.016564328223466873 141:0.03333507105708122 142:0.055088918656110764 143:0.10432452708482742 144:0.6269071102142334 145:0.037348855286836624 146:0.0478229857981205 147:0.2252318561077118 148:0.2990155518054962 149:0.1889508068561554 150:0.08769642561674118 151:0.0852520614862442 152:0.04166542738676071 153:0.05186309292912483 154:0.08791833370923996 155:0.38533467054367065 156:0.22110795974731445 157:0.23486095666885376 158:0.10363613814115524 159:0.10387659817934036 160:0.008901008404791355 161:0.040186624974012375 162:0.09234613925218582 163:0.045094769448041916 164:0.0079955467954278 165:0.03623328357934952 166:0.26728537678718567 167:0.1578044295310974 168:0.09947424381971359 169:0.0675363689661026 170:0.13874974846839905 171:0.0075440602377057076 172:0.008433024398982525 173:0.20045879483222961 174:0.48166272044181824 175:0.31633228063583374 176:0.05636979639530182 177:0.006106656044721603 178:0.0 179:0.001652875798754394 180:0.0046750386245548725 181:0.4613582491874695 182:0.381575345993042 183:0.05565149337053299 184:0.06190624088048935 185:0.0802026018500328 186:0.16416500508785248 187:0.48699748516082764 188:0.07783221453428268 189:0.1743953973054886 190:0.005802925210446119 191:0.01171855442225933 192:0.07857193797826767 193:0.06498683989048004 194:0.03638835251331329 195:0.0483831986784935 196:0.021599076688289642 197:0.010461372323334217 198:0.0045876153744757175 199:0.18424341082572937 200:0.3464702367782593 201:0.37990429997444153 202:0.06184731423854828 203:0.039242103695869446 204:0.01246938668191433 205:0.01641315035521984 206:0.01170307770371437 207:0.03557836264371872 208:0.04544351249933243 209:0.01820642314851284 210:0.034177593886852264 211:0.04391791671514511 212:0.023211700841784477 213:0.02673858217895031 214:0.019592193886637688 215:0.00973180215805769 216:0.005981518421322107 217:0.08183513581752777 218:0.002997931092977524 219:0.023794598877429962 220:0.008993793278932571 221:0.030836457386612892 222:0.002997931092977524 223:0.013272405602037907 224:0.005995862185955048 225:0.032768405973911285 226:0.7967578172683716 227:0.18951627612113953 228:0.13096779584884644 229:0.017005272209644318 230:0.005362862255424261 231:0.09666935354471207 232:0.24762623012065887 233:0.004834018647670746 234:0.39506325125694275 235:0.04450303688645363 236:0.011991724371910095 237:0.02000248059630394 238:0.020471151918172836 239:0.022792164236307144 240:0.013233507983386517 241:0.017064521089196205 242:0.025207560509443283 243:0.0 244:0.2170833796262741 245:0.09979035705327988 246:0.007584231905639172 247:0.03869321942329407 248:0.042933348566293716 249:0.09200283885002136 250:0.007584231905639172 251:0.011991724371910095 252:0.041440725326538086 253:0.14233696460723877 254:0.11028438806533813 255:0.17163848876953125 256:0.21591569483280182 257:0.1725717931985855 258:0.19093385338783264 259:0.022930055856704712 260:0.06553478538990021 261:0.10756900906562805 262:0.5579481720924377 263:0.37120139598846436 264:0.3584124445915222 265:0.10681662708520889 266:0.057571545243263245 267:0.005955148488283157 268:0.04441870376467705 269:0.03704216703772545 270:0.18859709799289703 271:0.1028653085231781 272:0.1282309591770172 273:0.10846120864152908 274:0.13595619797706604 275:0.09611570835113525 276:0.15447409451007843 277:0.09175419062376022 278:0.08941105753183365 279:0.027217095717787743 280:0.20342275500297546 281:0.02212066575884819 282:0.07237125933170319 283:0.058345865458250046 284:0.0319586805999279 285:0.04785817489027977 286:0.020875168964266777 287:0.05934489518404007 288:0.11104872077703476 289:0.13893918693065643 290:0.11513499170541763 291:0.09789148718118668 292:0.10034536570310593 293:0.1601908951997757 294:0.04367727041244507 295:0.07726375758647919 296:0.012792776338756084 297:0.0 298:0.09889146685600281 299:0.1854541301727295 300:0.2933214604854584 301:0.2760862708091736 302:0.17782770097255707 303:0.10564431548118591 304:0.02871859446167946 305:0.041255462914705276 306:0.0180917177349329 307:0.11090017855167389 308:0.012792776338756084 309:0.0 310:0.03088449500501156 311:0.04576882719993591 312:0.20730586349964142 313:0.37048593163490295 314:0.2882774770259857 315:0.13053829967975616 316:0.12014317512512207 317:0.012792776338756084 318:0.26427027583122253 319:0.23086057603359222 320:0.16767215728759766 321:0.0 322:0.11771807074546814 323:0.2806349992752075 324:0.3281190097332001 
0.057362368634512544 0.1491262329712247 0.009890084236480167 0.3331062510201264 0.09991493846465122 1:0.6831580996513367 2:0.0081761684268713 3:0.019519492983818054 4:0.033034395426511765 5:0.014625973999500275 6:0.029608525335788727 7:0.010342124849557877 8:0.06759399175643921 9:0.1231682077050209 10:0.06633863598108292 11:0.0081761684268713 12:0.002585531212389469 13:0.13077715039253235 14:0.05329877883195877 15:0.03369660675525665 16:0.06882833689451218 17:0.09867165237665176 18:0.013319478370249271 19:0.6340939998626709 20:0.013229317031800747 21:0.042789276689291 22:0.02622184343636036 23:0.005484740249812603 24:0.01226425264030695 25:0.031282395124435425 26:0.07388567924499512 27:0.2051241248846054 28:0.10409029573202133 29:0.0081761684268713 30:0.01693396270275116 31:0.01804567500948906 32:0.02376720681786537 33:0.0081761684268713 34:0.03270316496491432 35:0.05498393625020981 36:0.030221693217754364 37:0.07031688094139099 38:0.008824785239994526 39:0.008545665070414543 40:0.05719299986958504 41:0.22440680861473083 42:0.03545135632157326 43:0.06129729747772217 44:0.04884873330593109 45:0.03741759806871414 46:0.08049686253070831 47:0.0067559415474534035 48:0.010682080872356892 49:0.050356633961200714 50:0.3407334089279175 51:0.03793748840689659 52:0.031083807349205017 53:0.053535837680101395 54:0.027916593477129936 55:0.08312901854515076 56:0.02164711430668831 57:0.023500578477978706 58:0.03454301878809929 59:0.1828889548778534 60:0.010133912786841393 61:0.057864926755428314 62:0.05716182664036751 63:0.014331516809761524 64:0.30122965574264526 65:0.007553372066468 66:0.15401804447174072 67:0.3614150583744049 68:0.613252580165863 69:0.011533113196492195 70:0.1688874512910843 71:0.2987721562385559 72:0.11186636239290237 73:0.0759940817952156 74:0.015230322256684303 75:0.010665887966752052 76:0.0042160628363490105 77:0.606928825378418 78:0.0 79:0.07912120223045349 80:0.07198262959718704 81:0.043077852576971054 82:0.034125350415706635 83:0.012648188509047031 84:0.028129974380135536 85:0.005962412804365158 86:0.7345325946807861 87:0.02951243706047535 88:0.05885188654065132 89:0.07772520184516907 90:0.06092670559883118 91:0.08278784900903702 92:0.02787850797176361 93:0.0 94:0.012648188509047031 95:0.013198363594710827 96:0.027042724192142487 97:0.056201767176389694 98:0.11778812110424042 99:0.05728495493531227 100:0.10342799127101898 101:0.016864251345396042 102:0.036129388958215714 103:0.014369686134159565 104:0.0056564416736364365 105:0.02151048369705677 106:0.03733060508966446 107:0.09928993880748749 108:0.05632996931672096 109:0.3898133933544159 110:0.027327021583914757 111:0.035565853118896484 112:0.031230799853801727 113:0.01088741235435009 114:0.004868999123573303 115:0.052350226789712906 116:0.019475996494293213 117:0.5895196199417114 118:0.07807359099388123 119:0.031202100217342377 120:0.03248642385005951 121:0.06452508270740509 122:0.028307273983955383 123:0.02834990620613098 124:0.03417859971523285 125:0.03905312344431877 126:0.051891349256038666 127:0.49523892998695374 128:0.058529116213321686 129:0.08562231808900833 130:0.030470792204141617 131:0.03266223892569542 132:0.02073279581964016 133:0.023248150944709778 134:0.027327019721269608 135:0.4450524151325226 136:0.03772391378879547 137:0.05475516989827156 138:0.05850907415151596 139:0.030470792204141617 140:0.037017203867435455 141:0.055519748479127884 142:0.03248642385005951 143:0.04191078990697861 144:0.0338197723031044 145:0.15362276136875153 146:0.03736650198698044 147:0.1858464479446411 148:0.09057409316301346 149:0.17496518790721893 150:0.1652144193649292 151:0.012147432193160057 152:0.08899988234043121 153:0.08705861121416092 154:0.11129257827997208 155:0.3926590085029602 156:0.10384189337491989 157:0.17748084664344788 158:0.19561895728111267 159:0.032205596566200256 160:0.0916169062256813 161:0.09997081011533737 162:0.024619847536087036 163:0.36553576588630676 164:0.11671047657728195 165:0.07445051521062851 166:0.04188832640647888 167:0.0359964519739151 168:0.010270285420119762 169:0.005949081387370825 170:0.049596089869737625 171:0.14822345972061157 172:0.05639588460326195 173:0.13699541985988617 174:0.6197593808174133 175:0.07064539939165115 176:0.006254343781620264 177:0.008405616506934166 178:0.001961810514330864 179:6.054715486243367E-4 180:8.562661241739988E-4 181:0.621107280254364 182:0.20738276839256287 183:0.41484156250953674 184:0.034116778522729874 185:0.005070145707577467 186:0.028342975303530693 187:0.17775121331214905 188:0.29244229197502136 189:0.16980411112308502 190:0.1518390029668808 191:0.05448909476399422 192:0.021510805934667587 193:0.021789563819766045 194:0.020280582830309868 195:0.028342975303530693 196:0.03615623712539673 197:0.08078920841217041 198:0.06589754670858383 199:0.24822410941123962 200:0.2753533720970154 201:0.12230236083269119 202:0.008016603998839855 203:0.020280582830309868 204:0.010452372953295708 205:0.023480871692299843 206:0.051017358899116516 207:0.052971165627241135 208:0.18166100978851318 209:0.10464778542518616 210:0.04499167576432228 211:0.03867417573928833 212:0.01774550974369049 213:0.03773500770330429 214:0.0071702683344483376 215:0.046804673969745636 216:0.020904745906591415 217:0.24130746722221375 218:0.02108275145292282 219:0.027483992278575897 220:0.02310105785727501 221:7.432277197949588E-4 222:0.006388221401721239 223:0.0047819106839597225 224:0.0016619076486676931 225:0.23090854287147522 226:0.04269973933696747 227:0.03140832111239433 228:0.24818803369998932 229:0.28332453966140747 230:0.3391856551170349 231:0.22516195476055145 232:0.3755365312099457 233:0.22012458741664886 234:0.1347242295742035 235:0.17929157614707947 236:0.04440651088953018 237:0.02020404115319252 238:0.009676511399447918 239:0.0022296831011772156 240:0.0030644063372164965 241:0.001051082625053823 242:0.004985723178833723 243:0.3415112793445587 244:0.1361365020275116 245:0.053068507462739944 246:0.0781547874212265 247:0.04980705305933952 248:0.01045145932585001 249:0.004985722713172436 250:0.0 251:0.018820330500602722 252:0.4322930574417114 253:0.39246076345443726 254:0.24845655262470245 255:0.1298847794532776 256:0.35304394364356995 257:0.5667287707328796 258:0.13754647970199585 259:0.12009426206350327 260:0.025311030447483063 261:0.10653340816497803 262:0.22078999876976013 263:0.07445269823074341 264:0.03201407194137573 265:0.006451945286244154 266:0.04375344514846802 267:0.009021087549626827 268:0.04728991165757179 269:0.0 270:0.20832863450050354 271:0.04400220140814781 272:0.09302129596471786 273:0.16976557672023773 274:0.01527166273444891 275:0.038250621408224106 276:0.0025867035146802664 277:0.0043045347556471825 278:0.004805160220712423 279:0.0212347824126482 280:0.26865237951278687 281:0.0032482685055583715 282:0.011620837263762951 283:0.036777809262275696 284:0.06217028945684433 285:0.04395926371216774 286:0.011279219761490822 287:0.0 288:0.22809551656246185 289:0.22181248664855957 290:0.12567858397960663 291:0.12151937931776047 292:0.023797130212187767 293:0.035474665462970734 294:0.049518976360559464 295:0.05794245004653931 296:0.06669794768095016 297:0.08443929255008698 298:0.16534720361232758 299:0.12775376439094543 300:0.07073301076889038 301:0.041885729879140854 302:0.05350559577345848 303:0.022436149418354034 304:0.09563782066106796 305:0.07151830196380615 306:0.07318641990423203 307:0.01817404478788376 308:0.07812216132879257 309:0.10348162800073624 310:0.13400641083717346 311:0.5531100034713745 312:0.5360451936721802 313:0.0685848593711853 314:0.027036068961024284 315:0.0 316:0.166174978017807 317:0.28597700595855713 318:0.2520657181739807 319:0.0880654901266098 320:0.08568491041660309 321:0.0630837082862854 322:0.010033749975264072 323:0.007932376116514206 324:0.04047123342752457 
0.0 0.018814800672765957 0.0 0.0 0.0 1:0.38988932967185974 2:0.03950842469930649 3:0.08182734996080399 4:0.15464439988136292 5:0.19435574114322662 6:0.10695351660251617 7:0.07496196031570435 8:0.19024845957756042 9:0.18259380757808685 10:0.16928629577159882 11:0.09877105802297592 12:0.087455615401268 13:0.09568759799003601 14:0.24736185371875763 15:0.3682284951210022 16:0.13180197775363922 17:0.0957786813378334 18:0.0 19:0.30975231528282166 20:0.0836801826953888 21:0.14429563283920288 22:0.14634549617767334 23:0.17668704688549042 24:0.15974341332912445 25:0.15661469101905823 26:0.11583008617162704 27:0.0 28:0.1781206578016281 29:0.07136113196611404 30:0.05684003233909607 31:0.05926263704895973 32:0.30920231342315674 33:0.15125511586666107 34:0.08182734996080399 35:0.05926263704895973 36:0.027936674654483795 37:0.03532036766409874 38:0.025791015475988388 39:0.027056539431214333 40:0.017816992476582527 41:0.03973541408777237 42:0.015448782593011856 43:0.01987513154745102 44:0.009872343391180038 45:0.004653867334127426 46:0.022314049303531647 47:0.011887786909937859 48:0.02403767593204975 49:0.02997499331831932 50:0.027961958199739456 51:0.03234320133924484 52:0.027262629941105843 53:0.009872343391180038 54:0.0 55:0.01766018383204937 56:0.09942489117383957 57:0.18973904848098755 58:0.23619861900806427 59:0.47435909509658813 60:0.018299050629138947 61:0.0020812726579606533 62:0.0032907810527831316 63:0.0 64:0.0044150459580123425 65:0.06668863445520401 66:0.5986589193344116 67:0.34741440415382385 68:0.37795624136924744 69:0.13842743635177612 70:0.08049182593822479 71:0.05333415046334267 72:0.08760620653629303 73:0.026994924992322922 74:0.012114343233406544 75:0.030380642041563988 76:0.051600486040115356 77:0.11507448554039001 78:0.034426283091306686 79:0.03038064017891884 80:0.015090622939169407 81:0.007113787345588207 82:0.04076932370662689 83:0.013141173869371414 84:0.022269677370786667 85:0.06860876083374023 86:0.15554705262184143 87:0.05871427431702614 88:0.0434211865067482 89:0.028231794014573097 90:0.007113787345588207 91:0.10249980539083481 92:0.03753023222088814 93:0.047720734030008316 94:0.054469235241413116 95:0.031494081020355225 96:0.005030207335948944 97:0.8635709881782532 98:0.3622506260871887 99:0.18951871991157532 100:0.06894753128290176 101:0.010060414671897888 102:0.02545105665922165 103:0.047980498522520065 104:0.044991541653871536 105:0.015090622939169407 106:0.0254510585218668 107:0.02515103667974472 108:0.009275243617594242 109:0.18992488086223602 110:0.007008304353803396 111:0.04432440921664238 112:0.04385882988572121 113:0.07208681106567383 114:0.0 115:0.039891961961984634 116:0.02102491445839405 117:0.042656395584344864 118:0.5148630738258362 119:0.007008304353803396 120:0.035459525883197784 121:0.01982247829437256 122:0.09089206159114838 123:0.023927848786115646 124:0.035459522157907486 125:0.014016608707606792 126:0.23566493391990662 127:0.19892777502536774 128:0.02102491445839405 129:0.033462755382061005 130:0.014016608707606792 131:0.04074471816420555 132:0.028033217415213585 133:0.05762172117829323 134:0.03504152223467827 135:0.15408951044082642 136:0.37090033292770386 137:0.0183088555932045 138:0.02659464441239834 139:0.014016608707606792 140:0.050147343426942825 141:0.04495276138186455 142:0.03989196568727493 143:0.025317160412669182 144:0.6330011487007141 145:0.16015256941318512 146:0.06852447241544724 147:0.02035483717918396 148:0.2979775667190552 149:0.1441091150045395 150:0.25498899817466736 151:0.16571183502674103 152:0.16194480657577515 153:0.09867215156555176 154:0.14881224930286407 155:0.16993634402751923 156:0.26845479011535645 157:0.23563790321350098 158:0.11308625340461731 159:0.1557062417268753 160:0.039166949689388275 161:0.030753862112760544 162:0.016781004145741463 163:0.07164738327264786 164:0.11731220781803131 165:0.06606485694646835 166:0.04471036419272423 167:0.026227852329611778 168:0.05609222501516342 169:0.027103012427687645 170:0.029362821951508522 171:0.17257286608219147 172:0.033841777592897415 173:0.43043118715286255 174:0.5016183853149414 175:0.10348699986934662 176:0.0560857318341732 177:0.0 178:0.0 179:0.0 180:0.02159247174859047 181:0.744559645652771 182:0.3113071024417877 183:0.11358322203159332 184:0.0023780411574989557 185:0.05673259496688843 186:0.02810349129140377 187:0.13331681489944458 188:0.08681406080722809 189:0.20057426393032074 190:0.022333338856697083 191:0.011890205554664135 192:0.013536046259105206 193:0.015253262594342232 194:0.01701587624847889 195:0.020676031708717346 196:0.015866516157984734 197:0.011529977433383465 198:0.0033630579710006714 199:0.08227436244487762 200:0.04285397380590439 201:0.49983057379722595 202:0.008119139820337296 203:0.02028193324804306 204:0.0321442112326622 205:0.01584549807012081 206:0.03584522008895874 207:0.0 208:0.026718229055404663 209:0.014803074300289154 210:0.028576096519827843 211:0.0172601118683815 212:0.009571430273354053 213:0.007134123705327511 214:0.012032040394842625 215:0.016646286472678185 216:0.0 217:0.06486433744430542 218:0.003438494633883238 219:0.009495455771684647 220:0.012724759057164192 221:0.007688707672059536 222:0.009644076228141785 223:0.006524084601551294 224:0.002292329678311944 225:0.008728931657969952 226:0.13781963288784027 227:0.18027669191360474 228:0.35180068016052246 229:0.1279437094926834 230:0.027000686153769493 231:0.004405753221362829 232:0.056706126779317856 233:0.004584659356623888 234:0.12752561271190643 235:0.09446445107460022 236:0.006432794500142336 237:0.0069224233739078045 238:0.014345681294798851 239:0.010764190927147865 240:0.007172840181738138 241:0.007248982787132263 242:0.001146164839155972 243:0.060414381325244904 244:0.20246146619319916 245:0.08419747650623322 246:0.6414602398872375 247:0.05797908082604408 248:0.02631514146924019 249:0.10681238770484924 250:0.06602208316326141 251:0.4968912601470947 252:0.20979495346546173 253:0.10172069072723389 254:0.06417934596538544 255:0.2214108109474182 256:0.1591685712337494 257:0.06518103927373886 258:0.037214357405900955 259:0.017444053664803505 260:0.07183582335710526 261:0.1691843569278717 262:0.20332109928131104 263:0.09208356589078903 264:0.09689601510763168 265:0.06495916843414307 266:0.010045938193798065 267:0.010306953452527523 268:0.13841484487056732 269:0.2052418291568756 270:0.4635416865348816 271:0.004999606870114803 272:0.0033654384315013885 273:0.07100682705640793 274:0.11780205368995667 275:0.2280874252319336 276:0.014645321294665337 277:0.00686342129483819 278:0.00579925486817956 279:0.0030353376641869545 280:0.04079842567443848 281:0.003726487047970295 282:0.006215869449079037 283:0.05253452807664871 284:0.009200427681207657 285:0.0 286:0.0017676278948783875 287:0.41678646206855774 288:0.5311375260353088 289:0.0910327136516571 290:0.1066683903336525 291:0.13493919372558594 292:0.205430269241333 293:0.07125931233167648 294:0.05751362815499306 295:0.07087574154138565 296:0.021245423704385757 297:0.015022782608866692 298:0.14785407483577728 299:0.0938766673207283 300:0.12812691926956177 301:0.12067563831806183 302:0.10926428437232971 303:0.04689091444015503 304:0.026873569935560226 305:0.0 306:0.015022782608866692 307:0.3441576361656189 308:0.1110052689909935 309:0.09169616550207138 310:0.09371922165155411 311:0.20902732014656067 312:0.07551450282335281 313:0.013436784967780113 314:0.6319304704666138 315:0.3436574339866638 316:0.1822780817747116 317:0.06624394655227661 318:0.21925175189971924 319:0.13312093913555145 320:0.08076055347919464 321:0.02564549446105957 322:0.04031035304069519 323:0.0 324:0.04381082206964493 
0.0 0.0 0.009842933506343058 0.01811891399958827 0.0 1:0.12872382998466492 2:0.057842738926410675 3:0.14772801101207733 4:0.27643874287605286 5:0.25744765996932983 6:0.11987703293561935 7:0.08401983231306076 8:0.022141171619296074 9:0.0 10:0.18105880916118622 11:0.12949305772781372 12:0.26725366711616516 13:0.17333056032657623 14:0.2970549762248993 15:0.04428234323859215 16:0.2532503604888916 17:0.022141171619296074 18:0.0 19:0.4024147093296051 20:0.0885646864771843 21:0.35777759552001953 22:0.06642351299524307 23:0.12872382998466492 24:0.06642351299524307 25:0.11202643811702728 26:0.0 27:0.0 28:0.18974167108535767 29:0.06642351299524307 30:0.15403635799884796 31:0.12939098477363586 32:0.2376439869403839 33:0.0885646864771843 34:0.0700165331363678 35:0.04428234323859215 36:0.0 37:0.06282887607812881 38:0.0 39:0.03949041664600372 40:0.04103953763842583 41:0.15358169376850128 42:0.08871843665838242 43:0.03949041664600372 44:0.020390132442116737 45:0.014391670934855938 46:0.02094295807182789 47:0.007804980035871267 48:0.08885344117879868 49:0.03121992014348507 50:0.1116957738995552 51:0.07867930829524994 52:0.10253506153821945 53:0.028195111081004143 54:0.0 55:0.09118252247571945 56:0.023414939641952515 57:0.04936302453279495 58:0.056822992861270905 59:0.15707218647003174 60:0.039024896919727325 61:0.049363020807504654 62:0.007804980035871267 63:0.0 64:0.13320516049861908 65:0.039024896919727325 66:0.5321578979492188 67:0.07024481892585754 68:0.549133837223053 69:0.06299451738595963 70:0.5113723278045654 71:0.04682987928390503 72:0.0 73:0.20887766778469086 74:0.04670646786689758 75:0.12627524137496948 76:0.2589067816734314 77:0.3342042863368988 78:0.2087126523256302 79:0.18535475432872772 80:0.02335323393344879 81:0.0 82:0.14621436595916748 83:0.04670646786689758 84:0.04430964216589928 85:0.07005970180034637 86:0.26109710335731506 87:0.22952556610107422 88:0.2592041492462158 89:0.192078098654747 90:0.0 91:0.3254551887512207 92:0.14011940360069275 93:0.08861928433179855 94:0.05637969821691513 95:0.26109710335731506 96:0.11312094330787659 97:0.11815904080867767 98:0.09866514801979065 99:0.03302646055817604 100:0.23146024346351624 101:0.0 102:0.2215481847524643 103:0.13647417724132538 104:0.21932154893875122 105:0.0 106:0.10338917374610901 107:0.04670646786689758 108:0.03302646055817604 109:0.16699299216270447 110:0.0 111:0.0532539039850235 112:0.014033638872206211 113:0.05962232127785683 114:0.014033638872206211 115:0.017751304432749748 116:0.0070168194361031055 117:0.05062448978424072 118:0.6816777586936951 119:0.014033638872206211 120:0.03994043171405792 121:0.014033638872206211 122:0.06276033818721771 123:0.014033638872206211 124:0.026626955717802048 125:0.028067277744412422 126:0.29036104679107666 127:0.24330541491508484 128:0.021050458773970604 129:0.053693339228630066 130:0.021050458773970604 131:0.05962232127785683 132:0.014033638872206211 133:0.026626955717802048 134:0.018331101164221764 135:0.060417577624320984 136:0.27414095401763916 137:0.0 138:0.0532539039850235 139:0.0070168194361031055 140:0.047070253640413284 141:0.030973738059401512 142:0.026626955717802048 143:0.021050458773970604 144:0.5020020604133606 145:0.03707679733633995 146:0.0318332239985466 147:0.21434737741947174 148:0.19023405015468597 149:0.14414212107658386 150:0.04402109980583191 151:0.01788509078323841 152:0.0491088442504406 153:0.04772128537297249 154:0.022594314068555832 155:0.23376305401325226 156:0.1740845888853073 157:0.15645109117031097 158:0.06870704889297485 159:0.0319044254720211 160:0.08314258605241776 161:0.1032782718539238 162:0.09529503434896469 163:0.06619492173194885 164:0.008222650736570358 165:0.030734455212950706 166:0.18494494259357452 167:0.10840394347906113 168:0.16789133846759796 169:0.1446782350540161 170:0.2431446760892868 171:0.06933993101119995 172:0.08625033497810364 173:0.34904444217681885 174:0.6477569937705994 175:0.17449761927127838 176:0.03917151317000389 177:0.01266706082969904 178:0.004073742777109146 179:0.0 180:0.0 181:0.6646795272827148 182:0.021413668990135193 183:0.010269149206578732 184:0.015754085034132004 185:0.08650677651166916 186:0.0629371851682663 187:0.28899404406547546 188:0.13171057403087616 189:0.2948177456855774 190:0.049737509340047836 191:0.009323695674538612 192:0.020538296550512314 193:0.020801333710551262 194:0.02394120953977108 195:0.012185140512883663 196:0.029343584552407265 197:0.007137889973819256 198:0.015141751617193222 199:0.39195480942726135 200:0.3127448558807373 201:0.19929862022399902 202:0.03446478396654129 203:0.028861548751592636 204:0.007137889973819256 205:0.013543193228542805 206:0.024402139708399773 207:0.23145179450511932 208:0.040161024779081345 209:0.010706835426390171 210:0.028326738625764847 211:0.020801333710551262 212:0.02074904926121235 213:0.022891975939273834 214:0.03532184287905693 215:0.010706835426390171 216:0.00504725007340312 217:0.16994522511959076 218:0.01095610111951828 219:0.017323115840554237 220:0.00547805055975914 221:0.04164759814739227 222:0.028719449415802956 223:0.04504010081291199 224:0.014311142265796661 225:0.1183343306183815 226:0.04939473047852516 227:0.00547805055975914 228:0.043479323387145996 229:0.00547805055975914 230:0.053896889090538025 231:0.0273902527987957 232:0.029620829969644547 233:0.01643415167927742 234:0.0 235:0.24551993608474731 236:0.03622334077954292 237:0.017323115840554237 238:0.03286830335855484 239:0.03429802134633064 240:0.01643415167927742 241:0.03655007854104042 242:0.01095610111951828 243:0.08931247144937515 244:0.04409745708107948 245:0.01095610111951828 246:0.8061999678611755 247:0.460010826587677 248:0.04164759814739227 249:0.04750749096274376 250:0.017323115840554237 251:0.019763058051466942 252:0.022649042308330536 253:0.16177929937839508 254:0.15424112975597382 255:0.06504347920417786 256:0.022579742595553398 257:0.10802661627531052 258:0.09757673740386963 259:0.05049147456884384 260:0.07953844964504242 261:0.3308122158050537 262:0.22255739569664001 263:0.08095094561576843 264:0.12845955789089203 265:0.00928932148963213 266:0.0 267:0.009876362048089504 268:0.01844502054154873 269:0.08490587770938873 270:0.5635706782341003 271:0.30770227313041687 272:0.3265253007411957 273:0.111881785094738 274:0.0812821015715599 275:0.1166067123413086 276:0.040171898901462555 277:0.06693873554468155 278:0.025825222954154015 279:0.18843962252140045 280:0.13353770971298218 281:0.05510697141289711 282:0.07532356679439545 283:0.05465206503868103 284:0.08377135545015335 285:0.12290911376476288 286:0.14010003209114075 287:0.2206057757139206 288:0.10780034959316254 289:0.05904054641723633 290:0.02420010417699814 291:0.05673964321613312 292:0.02316001057624817 293:0.04458143189549446 294:0.020986761897802353 295:0.041643016040325165 296:0.010493380948901176 297:0.007419940549880266 298:0.11875070631504059 299:0.03148014098405838 300:0.03981957584619522 301:0.033653389662504196 302:0.023463912308216095 303:0.007419940549880266 304:0.006636596284806728 305:0.020986761897802353 306:0.014839881099760532 307:0.4755362272262573 308:0.18313375115394592 309:0.030193261802196503 310:0.058167699724435806 311:0.13630355894565582 312:0.030579950660467148 313:0.5992249846458435 314:0.37108275294303894 315:0.38855746388435364 316:0.04496219754219055 317:0.04315352067351341 318:0.16005253791809082 319:0.07695028185844421 320:0.04223504289984703 321:0.0 322:0.009954893961548805 323:0.013706725090742111 324:0.0 
0.0 0.20462161118475444 0.00688736895182109 0.0 0.0 1:0.43069517612457275 2:0.05755056068301201 3:0.061955057084560394 4:0.09954295307397842 5:0.04719702899456024 6:0.00699711125344038 7:0.046685393899679184 8:0.011282502673566341 9:0.4670645594596863 10:0.08538150787353516 11:0.050553448498249054 12:0.05354253202676773 13:0.11364132165908813 14:0.15646015107631683 15:0.03088674135506153 16:0.03783467039465904 17:0.02956211566925049 18:0.04559488967061043 19:0.42254799604415894 20:0.05597689002752304 21:0.060399677604436874 22:0.036791667342185974 23:0.04693804681301117 24:0.023889631032943726 25:0.02898394875228405 26:0.01827961392700672 27:0.5406396985054016 28:0.14475394785404205 29:0.04198266565799713 30:0.03982825204730034 31:0.03378504142165184 32:0.04693804681301117 33:0.06478011608123779 34:0.0579678900539875 35:0.03227383643388748 36:0.00989540945738554 37:0.06538451462984085 38:0.030863113701343536 39:0.024991344660520554 40:0.03809427469968796 41:0.18289555609226227 42:0.011681181378662586 43:0.025966135784983635 44:0.0 45:0.0 46:0.06984630227088928 47:0.037116460502147675 48:0.008655378594994545 49:0.03884807229042053 50:0.24753592908382416 51:0.014568480663001537 52:0.018499810248613358 53:0.01578075997531414 54:0.02231736294925213 55:0.04768044129014015 56:0.026028454303741455 57:0.012983067892491817 58:0.02234725095331669 59:0.32114288210868835 60:0.0068426779471337795 61:0.059466954320669174 62:0.048055775463581085 63:0.009677007794380188 64:0.02925967611372471 65:0.03159971907734871 66:0.42638134956359863 67:0.48831865191459656 68:0.22368188202381134 69:0.510545015335083 70:0.13586106896400452 71:0.15431155264377594 72:0.014515512622892857 73:0.07051467895507812 74:0.04331804811954498 75:0.04354361817240715 76:0.010492616333067417 77:0.5967068076133728 78:0.04130176454782486 79:0.04354361444711685 80:0.0673959031701088 81:0.026587553322315216 82:0.07748422026634216 83:0.05950017645955086 84:0.023520978167653084 85:0.027475779876112938 86:0.7264880537986755 87:0.013737889938056469 88:0.055961716920137405 89:0.02624678611755371 90:0.02414240874350071 91:0.10007443279027939 92:0.037627626210451126 93:0.0379670225083828 94:0.03894471749663353 95:0.04071733355522156 96:0.045968905091285706 97:0.04348510876297951 98:0.19259297847747803 99:0.05011463537812233 100:0.06657863408327103 101:0.08454897254705429 102:0.04516489803791046 103:0.019428309053182602 104:0.025448331609368324 105:0.029920926317572594 106:0.08151063323020935 107:0.034142520278692245 108:0.0 109:0.4097100496292114 110:0.0818464383482933 111:0.10362076014280319 112:0.061718784272670746 113:0.023890556767582893 114:0.0 115:0.012669880874454975 116:0.013355227187275887 117:0.3774273991584778 118:0.2801741063594818 119:0.04006567969918251 120:0.07643746584653854 121:0.07809178531169891 122:0.04778111353516579 123:0.04006568342447281 124:0.01499062217772007 125:0.026710454374551773 126:0.3394254744052887 127:0.3479202091693878 128:0.07100454717874527 129:0.0337863489985466 130:0.07126574218273163 131:0.04180847480893135 132:0.016121186316013336 133:0.0337863452732563 134:0.013355227187275887 135:0.4431561529636383 136:0.2221548855304718 137:0.07357614487409592 138:0.10220500826835632 139:0.0724114328622818 140:0.035835836082696915 141:0.026710454374551773 142:0.0 143:0.04006568342447281 144:0.2221873253583908 145:0.03891056030988693 146:0.12523266673088074 147:0.259726345539093 148:0.08722121268510818 149:0.17329347133636475 150:0.04915592074394226 151:0.09410763531923294 152:0.11300784349441528 153:0.05790502578020096 154:0.11130402982234955 155:0.09598413854837418 156:0.23862019181251526 157:0.14521297812461853 158:0.12836861610412598 159:0.16527479887008667 160:0.09979566186666489 161:0.0734022706747055 162:0.0133315809071064 163:0.02767176926136017 164:0.001540909637697041 165:0.01767927035689354 166:0.14685283601284027 167:0.09287936985492706 168:0.061833590269088745 169:0.1543951779603958 170:0.2326035052537918 171:0.18947112560272217 172:0.024863949045538902 173:0.06310082226991653 174:0.6696400046348572 175:0.29789999127388 176:0.02265816368162632 177:0.0 178:0.008800421841442585 179:0.008522252552211285 180:0.0 181:0.24888858199119568 182:0.12152456492185593 183:0.22171562910079956 184:0.16552942991256714 185:0.07564051449298859 186:0.3765249252319336 187:0.019714651629328728 188:0.30888599157333374 189:0.3916492462158203 190:0.05380050465464592 191:0.03310895338654518 192:0.025382796302437782 193:0.012905142270028591 194:0.015005523338913918 195:0.005162057001143694 196:0.011426699347794056 197:0.002581028500571847 198:0.0 199:0.0563833974301815 200:0.2629779875278473 201:0.6062216758728027 202:0.011393210850656033 203:0.013851252384483814 204:0.01397424004971981 205:0.015588481910526752 206:0.002581028500571847 207:0.0 208:0.045203883200883865 209:0.02380974031984806 210:0.015588481910526752 211:0.016555266454815865 212:0.028856776654720306 213:0.0036501255817711353 214:0.014691471122205257 215:0.0077430857345461845 216:0.0 217:0.3064960837364197 218:0.0489497110247612 219:0.061834629625082016 220:0.06305629760026932 221:0.01112645398825407 222:0.033977579325437546 223:0.003147036535665393 224:0.02599860541522503 225:0.25774505734443665 226:0.18910010159015656 227:0.0651269257068634 228:0.06812870502471924 229:0.06725550442934036 230:0.015577035956084728 231:0.029078714549541473 232:0.022029254585504532 233:0.012999302707612514 234:0.2061808556318283 235:0.23927277326583862 236:0.059710822999477386 237:0.045787833631038666 238:0.019903605803847313 239:0.035604652017354965 240:0.0 241:0.026905616745352745 242:0.019903605803847313 243:0.2835721969604492 244:0.09918291121721268 245:0.10561864823102951 246:0.43435636162757874 247:0.0473518930375576 248:0.0133517449721694 249:0.04392938315868378 250:0.03630274534225464 251:0.0650167167186737 252:0.6069479584693909 253:0.08969152718782425 254:0.03509029746055603 255:0.23855872452259064 256:0.23910348117351532 257:0.11527910083532333 258:0.23603612184524536 259:0.2256896048784256 260:0.21469227969646454 261:0.09610264748334885 262:0.19886526465415955 263:0.11427000164985657 264:0.08849705010652542 265:0.1315675526857376 266:0.045676156878471375 267:0.11641538888216019 268:0.031137697398662567 269:0.035635944455862045 270:0.0476393960416317 271:0.21502187848091125 272:0.3887224793434143 273:0.10116269439458847 274:0.2587501108646393 275:0.33408641815185547 276:0.12055698782205582 277:0.22530372440814972 278:0.031200427561998367 279:0.22183193266391754 280:0.04933016002178192 281:0.0699101984500885 282:0.0736403539776802 283:0.24598026275634766 284:0.08785063028335571 285:0.12157369405031204 286:0.05756789445877075 287:0.04870980605483055 288:0.020737752318382263 289:0.00224734703078866 290:0.010050441138446331 291:0.0095346849411726 292:0.01931648887693882 293:0.18978776037693024 294:0.5498571395874023 295:0.3016398549079895 296:0.08431345969438553 297:0.0 298:0.04980632662773132 299:0.0050252205692231655 300:0.0190693698823452 301:0.01715717650949955 302:0.056183673441410065 303:0.08418747037649155 304:0.09120085090398788 305:0.02751818671822548 306:0.0071067349053919315 307:0.00224734703078866 308:0.0 309:0.0 310:0.056919828057289124 311:0.0675324946641922 312:0.13667789101600647 313:0.38270166516304016 314:0.33087632060050964 315:0.025626981630921364 316:0.0 317:0.0 318:0.0031782283913344145 319:0.0 320:0.01573142781853676 321:0.12510666251182556 322:0.3823713958263397 323:0.28864771127700806 324:0.10918481647968292 
0.025017244239400743 0.10629604406468042 0.0 0.0 0.0 1:0.4926188886165619 2:0.04843840003013611 3:0.09896345436573029 4:0.03545870631933212 5:0.05570308864116669 6:0.01670580729842186 7:0.02188223972916603 8:0.031917110085487366 9:0.37133026123046875 10:0.08393559604883194 11:0.01807756908237934 12:0.039388030767440796 13:0.11224649101495743 14:0.19312697649002075 15:0.036385007202625275 16:0.06410852074623108 17:0.027679087594151497 18:0.08952697366476059 19:0.6200681924819946 20:0.06122973561286926 21:0.019910691305994987 22:0.05130466818809509 23:0.04332462325692177 24:0.02075931616127491 25:0.0374164804816246 26:0.052676428109407425 27:0.31039345264434814 28:0.06289669126272202 29:0.07484866678714752 30:0.06127026677131653 31:0.04033138230443001 32:0.08355463296175003 33:0.05908428877592087 34:0.03544493392109871 35:0.052820153534412384 36:0.06768307089805603 37:0.0545353889465332 38:0.018557056784629822 39:0.01760477013885975 40:0.018557056784629822 41:0.29996705055236816 42:0.031026551499962807 43:0.045624252408742905 44:0.03813536837697029 45:0.015115290880203247 46:0.0463176928460598 47:0.009278528392314911 48:0.020538896322250366 49:0.009278528392314911 50:0.36798274517059326 51:0.054875198751688004 52:0.04988017678260803 53:0.027835587039589882 54:0.015115290880203247 55:0.05305274575948715 56:0.039955440908670425 57:0.03095361404120922 58:0.0046392641961574554 59:0.04149484261870384 60:0.11858173459768295 61:0.0368218719959259 62:0.024239707738161087 63:0.02370097115635872 64:0.08641115576028824 65:0.013917793519794941 66:0.0029341282788664103 67:0.3508985638618469 68:0.7480661869049072 69:0.03297949954867363 70:0.18698172271251678 71:0.08084280043840408 72:0.0 73:0.04769482836127281 74:0.02968720532953739 75:0.0401446707546711 76:0.018059570342302322 77:0.5453308820724487 78:0.028638619929552078 79:0.05715612694621086 80:0.026447627693414688 81:0.007480518892407417 82:0.05044425278902054 83:0.0052895257249474525 84:0.01672694832086563 85:0.0 86:0.6425044536590576 87:0.0052895257249474525 88:0.09395541250705719 89:0.04680446907877922 90:0.019506806507706642 91:0.19603106379508972 92:0.024397680535912514 93:0.182539165019989 94:0.28414204716682434 95:0.23555099964141846 96:0.036119140684604645 97:0.01856527291238308 98:0.19226203858852386 99:0.03219495713710785 100:0.08955052495002747 101:0.03605677932500839 102:0.023417726159095764 103:0.028638619929552078 104:0.023655477911233902 105:0.04897107183933258 106:0.04349006339907646 107:0.03497673198580742 108:0.02471444010734558 109:0.5410297513008118 110:0.039961718022823334 111:0.03602562099695206 112:0.042721137404441833 113:0.02547396533191204 114:0.0201389379799366 115:0.01350960973650217 116:0.035600949078798294 117:0.4255680739879608 118:0.151868999004364 119:0.05879025533795357 120:0.06754804402589798 121:0.07893833518028259 122:0.02865821123123169 123:0.03732859343290329 124:0.03602562099695206 125:0.03996172174811363 126:0.0201389379799366 127:0.552635133266449 128:0.028480758890509605 129:0.086006760597229 130:0.014240379445254803 131:0.038210947066545486 132:0.0 133:0.02701921947300434 134:0.028480758890509605 135:0.3543175458908081 136:0.11593357473611832 137:0.04998921602964401 138:0.0700225979089737 139:0.048619695007801056 140:0.05413217470049858 141:0.038550227880477905 142:0.03850017860531807 143:0.052748631685972214 144:0.0433373898267746 145:0.06762495636940002 146:0.226069375872612 147:0.21013155579566956 148:0.22089286148548126 149:0.09474340081214905 150:0.01904183253645897 151:0.10211096704006195 152:0.12552274763584137 153:0.06862024962902069 154:0.037388160824775696 155:0.0455595925450325 156:0.28708380460739136 157:0.3798234462738037 158:0.23715265095233917 159:0.2176845371723175 160:0.08966289460659027 161:0.033480625599622726 162:0.04290594533085823 163:0.21990551054477692 164:0.055521853268146515 165:0.03566034883260727 166:0.057928476482629776 167:0.09160242974758148 168:0.06877939403057098 169:0.1335473209619522 170:0.022959597408771515 171:0.2508637607097626 172:0.010604369454085827 173:0.07714910805225372 174:0.5120667219161987 175:0.19725413620471954 176:0.0917893797159195 177:0.015265986323356628 178:0.0 179:0.004535130690783262 180:0.002236142521724105 181:0.6733704209327698 182:0.4097227454185486 183:0.15563178062438965 184:0.008533795364201069 185:0.13160943984985352 186:0.08123093843460083 187:0.04938235133886337 188:0.16605691611766815 189:0.3287200331687927 190:0.037423428148031235 191:0.009256201796233654 192:0.02502499334514141 193:0.006942151580005884 194:0.018627746030688286 195:0.014481610618531704 196:0.016903098672628403 197:0.006942151580005884 198:0.008549408055841923 199:0.06119460240006447 200:0.17030338943004608 201:0.3648298680782318 202:0.13911515474319458 203:0.01870129257440567 204:0.022661687806248665 205:0.016903096809983253 206:0.011570251546800137 207:0.0 208:0.027242617681622505 209:0.006942151580005884 210:0.013171805068850517 211:0.0023140504490584135 212:0.01759287156164646 213:0.00981768500059843 214:0.030879130586981773 215:0.016718789935112 216:0.014084581285715103 217:0.07179262489080429 218:0.012476550415158272 219:0.022143011912703514 220:0.0038618051912635565 221:0.008059575222432613 222:0.008809947408735752 223:0.007774637546390295 224:0.009314761497080326 225:0.06568524986505508 226:0.09448378533124924 227:0.32645943760871887 228:0.07455167919397354 229:0.10420230031013489 230:0.0069082072004675865 231:0.1491621881723404 232:0.023709842935204506 233:0.009124759584665298 234:0.046450160443782806 235:0.08135665953159332 236:0.00930038932710886 237:0.004070700146257877 238:0.007522679399698973 239:0.010937994346022606 240:0.007723609916865826 241:0.008588777855038643 242:0.0025745367165654898 243:0.0808364748954773 244:0.5558549165725708 245:0.665955126285553 246:0.03137231990695 247:0.04355354607105255 248:0.012685579247772694 249:0.12293298542499542 250:0.07005011290311813 251:0.08801183104515076 252:0.18897075951099396 253:0.42914193868637085 254:0.4566827416419983 255:0.05856001749634743 256:0.03653714433312416 257:0.03190740942955017 258:0.010858445428311825 259:0.034850526601076126 260:0.017617616802453995 261:0.038424789905548096 262:0.1404670923948288 263:0.40915820002555847 264:0.053920626640319824 265:0.022911177948117256 266:0.029297515749931335 267:0.014401118271052837 268:0.0 269:0.0 270:0.0 271:0.058088723570108414 272:0.3355836272239685 273:0.17961260676383972 274:0.045600082725286484 275:0.15916451811790466 276:0.16729599237442017 277:0.16037505865097046 278:0.29289451241493225 279:0.05530603975057602 280:0.18554161489009857 281:0.16002169251441956 282:0.005341376177966595 283:0.026572002097964287 284:0.02116565592586994 285:0.052647948265075684 286:0.07811807096004486 287:0.030279455706477165 288:0.13233457505702972 289:0.0 290:0.0 291:0.008894870057702065 292:0.0 293:0.2778133451938629 294:0.692025899887085 295:0.13366727530956268 296:0.04002340883016586 297:0.0 298:0.014801958575844765 299:0.008894870057702065 300:0.047272272408008575 301:0.02435041032731533 302:0.09918396174907684 303:0.15436005592346191 304:0.30932655930519104 305:0.07139549404382706 306:0.0 307:0.0475769080221653 308:0.019927598536014557 309:0.045355115085840225 310:0.013317682780325413 311:0.07154279947280884 312:0.034509073942899704 313:0.027910837903618813 314:0.049990713596343994 315:0.015602635219693184 316:0.03484160453081131 317:0.019901281222701073 318:0.02982799895107746 319:0.23872557282447815 320:0.009867972694337368 321:0.06014411523938179 322:0.35676488280296326 323:0.26794466376304626 324:0.09897283464670181 
0.0 0.07831277933192943 0.0 0.0 0.0 1:0.08995522558689117 2:0.04961554333567619 3:0.14172616600990295 4:0.1365770697593689 5:0.19969870150089264 6:0.16965411603450775 7:0.06850705295801163 8:0.05636853352189064 9:0.4826721251010895 10:0.06656623631715775 11:0.05974458158016205 12:0.22629469633102417 13:0.29170048236846924 14:0.3414517045021057 15:0.05636853352189064 16:0.10459873825311661 17:0.0698736160993576 18:0.0 19:0.4537302255630493 20:0.0 21:0.04183949902653694 22:0.03307702764868736 23:0.1701137125492096 24:0.03992750868201256 25:0.06275924295186996 26:0.01653851382434368 27:0.1875973790884018 28:0.11833997070789337 29:0.06615405529737473 30:0.14643824100494385 31:0.06615405529737473 32:0.15532121062278748 33:0.03307702764868736 34:0.11505860835313797 35:0.0 36:0.0 37:0.04832514002919197 38:0.006003239192068577 39:0.04935815930366516 40:0.09373193234205246 41:0.14816679060459137 42:0.03250281885266304 43:0.007593563292175531 44:0.0 45:0.0 46:0.010738920420408249 47:0.012006478384137154 48:0.05903809145092964 49:0.06734167039394379 50:0.25585100054740906 51:0.048545487225055695 52:0.08608295768499374 53:0.021686410531401634 54:0.008489862084388733 55:0.034901492297649384 56:0.006003239192068577 57:0.030374251306056976 58:0.2135051041841507 59:0.24799150228500366 60:0.006003239192068577 61:0.018983907997608185 62:0.021686410531401634 63:0.0 64:0.013423650525510311 65:0.006003239192068577 66:0.3051874041557312 67:0.09016576409339905 68:0.7246737480163574 69:0.2988866865634918 70:0.2303207665681839 71:0.012006478384137154 72:0.0 73:0.13887937366962433 74:0.023739809170365334 75:0.030028745532035828 76:0.14179715514183044 77:0.505165696144104 78:0.10293979942798615 79:0.11673305183649063 80:0.08129127323627472 81:0.0 82:0.0637005940079689 83:0.019139645621180534 84:0.04916838929057121 85:0.023739809170365334 86:0.6293196678161621 87:0.07606612890958786 88:0.13238587975502014 89:0.08575890958309174 90:0.03357315808534622 91:0.11678441613912582 92:0.031009551137685776 93:0.12011497467756271 94:0.11813744902610779 95:0.21299627423286438 96:0.12490691244602203 97:0.02252155914902687 98:0.07402152568101883 99:0.03867360204458237 100:0.07583227753639221 101:0.08129127323627472 102:0.21898531913757324 103:0.20785629749298096 104:0.0690089762210846 105:0.10293979942798615 106:0.04504311829805374 107:0.05474935844540596 108:0.05035974085330963 109:0.3912182152271271 110:0.03699242323637009 111:0.0734022781252861 112:0.03157500922679901 113:0.0496305450797081 114:0.05548863485455513 115:0.023396063596010208 116:0.0 117:0.15034112334251404 118:0.11597663909196854 119:0.009248105809092522 120:0.029245078563690186 121:0.027744319289922714 122:0.095125213265419 123:0.018496211618185043 124:0.04679212346673012 125:0.05926481634378433 126:0.0 127:0.6987961530685425 128:0.009248105809092522 129:0.04094310849905014 130:0.10794701427221298 131:0.09546751528978348 132:0.04848449304699898 133:0.07925129681825638 134:0.027744319289922714 135:0.0913645476102829 136:0.4736320972442627 137:0.08166957646608353 138:0.03509409353137016 139:0.026157595217227936 140:0.07444582134485245 141:0.07622881233692169 142:0.03509409353137016 143:0.027744319289922714 144:0.07340411841869354 145:0.28051960468292236 146:0.2620602250099182 147:0.15381436049938202 148:0.16315457224845886 149:0.11450595408678055 150:0.044449903070926666 151:0.04072064906358719 152:0.04979433864355087 153:0.016985634341835976 154:0.06254234164953232 155:0.03568623587489128 156:0.20537106692790985 157:0.32817909121513367 158:0.16582125425338745 159:0.17818039655685425 160:0.03467578440904617 161:0.035069577395915985 162:0.06196098402142525 163:0.22522668540477753 164:0.05524878948926926 165:0.01837639883160591 166:0.060734063386917114 167:0.1511213779449463 168:0.09614694863557816 169:0.19888916611671448 170:0.11515575647354126 171:0.12824484705924988 172:0.0 173:0.08329223096370697 174:0.530307948589325 175:0.3230299949645996 176:0.08116883784532547 177:0.05674871802330017 178:0.008825167082250118 179:0.02550361305475235 180:0.007705699186772108 181:0.36829397082328796 182:0.0828874409198761 183:0.07141901552677155 184:0.10372906178236008 185:0.016371633857488632 186:0.03555788844823837 187:0.45218485593795776 188:0.2350570559501648 189:0.38813623785972595 190:0.013097306713461876 191:0.0337706059217453 192:0.05136272683739662 193:0.07971491664648056 194:0.05730072036385536 195:0.023854725062847137 196:0.004630597308278084 197:0.007321617566049099 198:0.0 199:0.21645215153694153 200:0.5288586020469666 201:0.2779619097709656 202:0.028143633157014847 203:0.029468940570950508 204:0.0036608087830245495 205:0.03483450412750244 206:0.017708631232380867 207:0.037998221814632416 208:0.02455745078623295 209:0.0 210:0.021066946908831596 211:0.0281683299690485 212:0.06057504564523697 213:0.019248981028795242 214:0.030328139662742615 215:0.014643235132098198 216:0.0051771653816103935 217:0.3129899501800537 218:0.037420373409986496 219:0.04766003414988518 220:0.028042159974575043 221:0.04169304296374321 222:0.010358719155192375 223:0.009827143512666225 224:0.02071743831038475 225:0.16758275032043457 226:0.16308845579624176 227:0.12499711662530899 228:0.1282339096069336 229:0.029463669285178185 230:0.03937676176428795 231:0.06350516527891159 232:0.05126011371612549 233:0.08289358764886856 234:0.02370329387485981 235:0.3847624361515045 236:0.17595413327217102 237:0.09034281969070435 238:0.033221516758203506 239:0.011581400409340858 240:0.005179359577596188 241:0.016378574073314667 242:0.005179359577596188 243:0.04908205196261406 244:0.10340520739555359 245:0.15787474811077118 246:0.6261646747589111 247:0.3988359868526459 248:0.05131242796778679 249:0.05001632496714592 250:0.05258236825466156 251:0.06561776995658875 252:0.04287415370345116 253:0.07734371721744537 254:0.19810110330581665 255:0.17478881776332855 256:0.11192476749420166 257:0.04250236228108406 258:0.145679771900177 259:0.41085049510002136 260:0.20557048916816711 261:0.0971539244055748 262:0.0732274055480957 263:0.36834219098091125 264:0.09789566695690155 265:0.06500908732414246 266:0.07583045214414597 267:0.22652611136436462 268:0.012497588992118835 269:0.012764742597937584 270:0.3635021448135376 271:0.030986806377768517 272:0.04862944781780243 273:0.07073232531547546 274:0.36147788166999817 275:0.26203984022140503 276:0.18214531242847443 277:0.1369057446718216 278:0.07661067694425583 279:0.05104918032884598 280:0.07245736569166183 281:0.13195647299289703 282:0.1459342986345291 283:0.08387773483991623 284:0.03349903225898743 285:0.0591319277882576 286:0.00490951631218195 287:0.007080605253577232 288:0.00791635736823082 289:0.015475472435355186 290:0.041944798082113266 291:0.13432033360004425 292:0.16284313797950745 293:0.2680969536304474 294:0.3264763355255127 295:0.11285710334777832 296:0.0 297:0.0 298:0.08124623447656631 299:0.0 300:0.05217277258634567 301:0.04535435512661934 302:0.09672170132398605 303:0.04683864489197731 304:0.06619863957166672 305:0.05049926042556763 306:0.02446887083351612 307:0.2121378481388092 308:0.025953158736228943 309:0.022559182718396187 310:0.09174918383359909 311:0.11661595106124878 312:0.2835908532142639 313:0.29771822690963745 314:0.2869969308376312 315:0.1786794662475586 316:0.40660399198532104 317:0.03664644435048103 318:0.05538761615753174 319:0.04177097603678703 320:0.0038688681088387966 321:0.0 322:0.021885622292757034 323:0.31580793857574463 324:0.32941606640815735 
0.07578926026543063 0.0 0.0 0.03486576876517892 0.0 1:0.09214913845062256 2:0.055378954857587814 3:0.12842398881912231 4:0.14451004564762115 5:0.28068384528160095 6:0.07067142426967621 7:0.16344870626926422 8:0.018459651619195938 9:0.0 10:0.10040454566478729 11:0.04822494462132454 12:0.14009889960289001 13:0.04456554353237152 14:0.033021628856658936 15:0.4893033802509308 16:0.32279402017593384 17:0.26394209265708923 18:0.0 19:0.20906449854373932 20:0.08514424413442612 21:0.17512361705303192 22:0.036919303238391876 23:0.22289597988128662 24:0.036919303238391876 25:0.19321398437023163 26:0.1220635399222374 27:0.06014380231499672 28:0.13208651542663574 29:0.08505617827177048 30:0.09981473535299301 31:0.0970631018280983 32:0.28068384528160095 33:0.25756174325942993 34:0.11148963868618011 35:0.018459651619195938 36:0.0 37:0.09059309214353561 38:0.05144764855504036 39:0.049985967576503754 40:0.09597411006689072 41:0.15657024085521698 42:0.08480311185121536 43:0.038503896445035934 44:0.01424175500869751 45:0.0 46:0.08598294109106064 47:0.02572382427752018 48:0.07497895509004593 49:0.07477464526891708 50:0.11145936697721481 51:0.08901640772819519 52:0.029433680698275566 53:0.02848351001739502 54:0.0 55:0.06830121576786041 56:0.02848351001739502 57:0.0454823300242424 58:0.07692927867174149 59:0.07324472814798355 60:0.06175464019179344 61:0.10155482590198517 62:0.032844703644514084 63:0.010070441290736198 64:0.06778443604707718 65:0.3068896532058716 66:0.40548795461654663 67:0.26899001002311707 68:0.5099775195121765 69:0.1280638724565506 70:0.4770990014076233 71:0.17018939554691315 72:0.0 73:0.14801277220249176 74:0.10779110342264175 75:0.17736271023750305 76:0.25960761308670044 77:0.30308476090431213 78:0.32606860995292664 79:0.18548458814620972 80:0.04673917964100838 81:0.0 82:0.1463167816400528 83:0.07010877132415771 84:0.14780226349830627 85:0.07978877425193787 86:0.22992636263370514 87:0.18294714391231537 88:0.14114390313625336 89:0.04673917964100838 90:0.0 91:0.2316223531961441 92:0.04673917964100838 93:0.1182418018579483 94:0.19262713193893433 95:0.272596150636673 96:0.02336958982050419 97:0.16258247196674347 98:0.3067704439163208 99:0.0 100:0.10451198369264603 101:0.0 102:0.17736269533634186 103:0.04673917964100838 104:0.3448895514011383 105:0.02336958982050419 106:0.05912090465426445 107:0.0 108:0.0 109:0.11654641479253769 110:0.012409795075654984 111:0.03139457479119301 112:0.012409795075654984 113:0.1387457251548767 114:0.05817485600709915 115:0.04709186032414436 116:0.0 117:0.09042444080114365 118:0.4333483576774597 119:0.024819590151309967 120:0.15697285532951355 121:0.065060093998909 122:0.07214777916669846 123:0.05991979315876961 124:0.0706377848982811 125:0.03722938895225525 126:0.3513774871826172 127:0.27314960956573486 128:0.012409795075654984 129:0.05494049936532974 130:0.012409795075654984 131:0.04994846135377884 132:0.012409795075654984 133:0.06278914213180542 134:0.1465814709663391 135:0.10272688418626785 136:0.6639711260795593 137:0.07724976539611816 138:0.0706377923488617 139:0.024819590151309967 140:0.08324743807315826 141:0.0 142:0.04709186032414436 143:0.024819590151309967 144:0.13196276128292084 145:0.08178012073040009 146:0.1389366239309311 147:0.17504490911960602 148:0.2861214280128479 149:0.18546034395694733 150:0.061543919146060944 151:0.024170860648155212 152:0.020654160529375076 153:0.13063369691371918 154:0.10716655850410461 155:0.1371804028749466 156:0.142230823636055 157:0.3619350492954254 158:0.15918292105197906 159:0.029515862464904785 160:0.051601726561784744 161:0.08835361897945404 162:0.038075242191553116 163:0.22605280578136444 164:0.177341490983963 165:0.09646929800510406 166:0.040226902812719345 167:0.12568582594394684 168:0.2445150762796402 169:0.09760677814483643 170:0.11241937428712845 171:0.2324102818965912 172:0.01812789961695671 173:0.3936314582824707 174:0.40106767416000366 175:0.05782138183712959 176:0.12991124391555786 177:0.06173895671963692 178:0.004467652179300785 179:0.008895795792341232 180:0.009219856932759285 181:0.4854356050491333 182:0.027230339124798775 183:0.016871465370059013 184:0.03022787719964981 185:0.03077593818306923 186:0.09914205223321915 187:0.1587584912776947 188:0.2053927630186081 189:0.33174359798431396 190:0.019707288593053818 191:0.009360583499073982 192:0.029600759968161583 193:0.03325146064162254 194:0.04046640545129776 195:0.01065300963819027 196:0.009866921231150627 197:0.006240388844162226 198:0.0 199:0.5487173795700073 200:0.2136613428592682 201:0.42286086082458496 202:0.025700246915221214 203:0.07409458607435226 204:0.07876911014318466 205:0.037091176956892014 206:0.022521570324897766 207:0.16042256355285645 208:0.020930899307131767 209:0.02566329389810562 210:0.030685150995850563 211:0.018185824155807495 212:0.030698653310537338 213:0.013773203827440739 214:0.02782277762889862 215:0.005031162407249212 216:0.004412621259689331 217:0.04184180498123169 218:0.016803575679659843 219:0.006169854197651148 220:0.006661401130259037 221:0.012215687893331051 222:0.009755396284162998 223:0.004935883451253176 224:0.0039021584670990705 225:0.02592494525015354 226:0.025303924456238747 227:0.04698854684829712 228:0.019743531942367554 229:0.008612480014562607 230:0.020995503291487694 231:0.008307934738695621 232:0.012339708395302296 233:0.007804316934198141 234:0.0035976122599095106 235:0.040630023926496506 236:0.027794435620307922 237:0.027147356420755386 238:0.02274344675242901 239:0.008725491352379322 240:0.009755396284162998 241:0.0037019122391939163 242:0.00994978565722704 243:0.014258123934268951 244:0.6114755272865295 245:0.6504577398300171 246:0.42644044756889343 247:0.03853526711463928 248:0.022719787433743477 249:0.021092968061566353 250:0.024953512474894524 251:0.030955404043197632 252:0.07641507685184479 253:0.18449632823467255 254:0.04955510422587395 255:0.27718695998191833 256:0.026631465181708336 257:0.0884331613779068 258:0.04572014883160591 259:0.08713430911302567 260:0.11763330549001694 261:0.2145974040031433 262:0.4433325529098511 263:0.2520708739757538 264:0.029977288097143173 265:0.01973395049571991 266:0.009819647297263145 267:0.045819662511348724 268:0.029872752726078033 269:0.01652686670422554 270:0.12704895436763763 271:0.19541124999523163 272:0.08632037788629532 273:0.04488798975944519 274:0.028467711061239243 275:0.1263861060142517 276:0.05348636582493782 277:0.052671097218990326 278:0.03022788092494011 279:0.02610553801059723 280:0.5541381239891052 281:0.014760245569050312 282:0.006241387687623501 283:0.014924684539437294 284:0.023103762418031693 285:0.04668455198407173 286:0.08465009182691574 287:0.11181852221488953 288:0.35510531067848206 289:0.3425191044807434 290:0.2155108004808426 291:0.14327646791934967 292:0.07729140669107437 293:0.21218213438987732 294:0.18978147208690643 295:0.2415422946214676 296:0.10941972583532333 297:0.0 298:0.2563401758670807 299:0.09489073604345322 300:0.16652460396289825 301:0.12843967974185944 302:0.30766409635543823 303:0.03354893997311592 304:0.13503186404705048 305:0.04744536802172661 306:0.0 307:0.22279123961925507 308:0.023722684010863304 309:0.12002833187580109 310:0.11861342191696167 311:0.14852748811244965 312:0.11861342191696167 313:0.2250531166791916 314:0.13314242660999298 315:0.0 316:0.26522767543792725 317:0.17139409482479095 318:0.24005666375160217 319:0.11861342191696167 320:0.12730927765369415 321:0.12473677098751068 322:0.16503895819187164 323:0.07116805762052536 324:0.06709787994623184 
